<?xml version="1.0"?>
<opencv_storage>
<DigitOCR type_id="opencv-ml-ann-mlp">
  <layer_sizes type_id="opencv-matrix">
    <rows>1</rows>
    <cols>3</cols>
    <dt>i</dt>
    <data>
      256 16 10</data></layer_sizes>
  <activation_function>SIGMOID_SYM</activation_function>
  <f_param1>5.9999999999999998e-001</f_param1>
  <f_param2>1.</f_param2>
  <min_val>-9.4999999999999996e-001</min_val>
  <max_val>9.4999999999999996e-001</max_val>
  <min_val1>-9.7999999999999998e-001</min_val1>
  <max_val1>9.7999999999999998e-001</max_val1>
  <training_params>
    <train_method>BACKPROP</train_method>
    <dw_scale>1.0000000000000001e-001</dw_scale>
    <moment_scale>1.0000000000000001e-001</moment_scale>
    <term_criteria><epsilon>9.9999999747524271e-007</epsilon>
      <iterations>1000</iterations></term_criteria></training_params>
  <input_scale>
    4.9871766173451348e+000 -4.7778787134040925e+000
    3.3430986746516571e+000 -3.0109810030387218e+000
    2.9945165489384431e+000 -2.6116111541561504e+000
    2.7819100867547153e+000 -2.3577828112330947e+000
    2.6430801736178520e+000 -2.1855239992997451e+000
    2.5365801105363666e+000 -2.0483923974593674e+000
    2.2410234623001188e+000 -1.6260278433016928e+000
    2.0194229907594599e+000 -8.7000715077309188e-001
    2.1154984252767730e+000 -7.1302701022443360e-001
    2.2177601539234963e+000 -6.2969845681893377e-001
    2.0034146913605002e+000 -9.4324704812907489e-001
    2.0343353772742736e+000 -1.2032593510173082e+000
    2.0760581180609958e+000 -1.3164250492885132e+000
    2.1741273289689982e+000 -1.5133351866889126e+000
    2.3744642326144922e+000 -1.8271696898184304e+000
    2.5846817219084204e+000 -2.1109646456635658e+000
    3.6723433656777540e+000 -3.3761478024132532e+000
    2.8542329536680202e+000 -2.4452821993227989e+000
    2.4908592992930592e+000 -1.9877873883538708e+000
    2.1009336566300623e+000 -1.3721507685269128e+000
    2.0432187285182497e+000 -8.1259813694840555e-001
    2.1502212671883472e+000 -6.8031590912680495e-001
    2.1925997218032478e+000 -6.4699663922063044e-001
    2.1650440541170246e+000 -6.6796932948331800e-001
    2.2598638304533822e+000 -6.0386525305557592e-001
    2.3962878242172247e+000 -5.3818267527501606e-001
    2.8707373188388687e+000 -4.0566812603919755e-001
    3.3236688574972071e+000 -3.3454634073824346e-001
    3.2542410605326748e+000 -3.4356249884967910e-001
    2.1227163988175257e+000 -7.0571620603310525e-001
    2.0687952930734079e+000 -1.2989321266346150e+000
    2.2798037629377661e+000 -1.6870547845739470e+000
    4.1683901604574389e+000 -3.9128200096359502e+000
    2.7967895618334242e+000 -2.3758956572820993e+000
    2.0377027773797503e+000 -1.2139363759013135e+000
    2.0170735718187816e+000 -8.7759233764049938e-001
    2.0167260760499821e+000 -8.7876359182636921e-001
    2.0000619217146269e+000 -9.9216186477187895e-001
    2.0223307747418757e+000 -1.1610167824829589e+000
    2.0423651262872200e+000 -1.2280975874133644e+000
    2.0420826607004585e+000 -1.2272582023160461e+000
    2.0219307926488890e+000 -1.1594612971616090e+000
    2.0052232935208418e+000 -1.0749311753792055e+000
    2.0241777665822398e+000 -8.5612764553806209e-001
    2.1575167387006351e+000 -6.7413555802678871e-001
    2.2669838968329898e+000 -5.9982164089974521e-001
    2.1134861673974652e+000 -7.1512056549317504e-001
    2.1302124020972135e+000 -1.4317821063276353e+000
    4.5531263920583243e+000 -4.3217380016422453e+000
    2.3570746883572258e+000 -1.8021961223767380e+000
    2.0000726725982507e+000 -9.9151143638313277e-001
    2.0026212150347122e+000 -9.5009603218204219e-001
    2.0168993604985248e+000 -1.1387215405831015e+000
    2.1425725492875816e+000 -1.4555443679094653e+000
    2.2969856794562480e+000 -1.7133253838567097e+000
    2.4643747220326535e+000 -1.9521079765347182e+000
    2.4244702849666240e+000 -1.8974460885951907e+000
    2.4586734314989940e+000 -1.9443673169755979e+000
    2.3536802477172425e+000 -1.7972856711257239e+000
    2.1520237312415560e+000 -1.4732542789614322e+000
    2.0002907379339763e+000 -1.0171970277165894e+000
    2.0923216316668869e+000 -7.3882963846073346e-001
    2.1269652927303535e+000 -7.0154986376614281e-001
    2.0098769327105113e+000 -1.1044438489255137e+000
    4.1580154623520125e+000 -3.9017181158201506e+000
    2.0990819344977569e+000 -1.3681884871414889e+000
    2.0006211976530519e+000 -1.0252363711251542e+000
    2.0000619217146269e+000 -1.0079000569427481e+000
    2.0963432186231064e+000 -1.3622794292822940e+000
    2.3360292642483098e+000 -1.7715526846578167e+000
    2.6084730599129156e+000 -2.1415136203350622e+000
    2.5618351133015782e+000 -2.0813860363151839e+000
    2.6797722960053054e+000 -2.2316792235585168e+000
    2.9530469080475172e+000 -2.5628574313448453e+000
    2.7033005777704986e+000 -2.2610228766860794e+000
    2.2311870107754768e+000 -1.6101123313825652e+000
    2.0269826106001445e+000 -1.1783082519980512e+000
    2.0207535573264179e+000 -8.6594258997561580e-001
    2.0321031543369177e+000 -8.3616047825994477e-001
    2.0016549408663260e+000 -1.0415168495589702e+000
    3.8023659405355232e+000 -3.5181235030135234e+000
    2.1940197745156333e+000 -1.5480428048385715e+000
    2.0162117769438588e+000 -1.1356891255047703e+000
    2.0265404956185047e+000 -1.1767223664722530e+000
    2.1587550254456644e+000 -1.4856481306263769e+000
    2.4140227479263383e+000 -1.8829377433825440e+000
    2.4572582683100097e+000 -1.9424425196378470e+000
    2.5900862060744658e+000 -2.1179262288359730e+000
    2.9945165489384431e+000 -2.6116111541561504e+000
    3.0882517316640992e+000 -2.7206991485185030e+000
    2.5077412300376558e+000 -2.0103040352269077e+000
    2.1990477826693526e+000 -1.5566374304206991e+000
    2.0100091731280467e+000 -1.1051755355199129e+000
    2.0002081485876904e+000 -9.8567634338599952e-001
    2.0034146913605002e+000 -9.4324704812907489e-001
    2.0338323614276272e+000 -1.2016281689483883e+000
    3.5686405743758609e+000 -3.2620884988065244e+000
    2.2546193322723647e+000 -1.6477201611918362e+000
    2.0548506874023063e+000 -1.2632278815997784e+000
    2.0595282361604883e+000 -1.2755569961007089e+000
    2.1318556041195689e+000 -1.4349834607401557e+000
    2.1714984339930141e+000 -1.5086574366003924e+000
    2.2511677444880975e+000 -1.6422453217986941e+000
    2.2950365802479937e+000 -1.7103666055421933e+000
    2.3381947019821818e+000 -1.7747281098651642e+000
    2.2200872873144837e+000 -1.5919117696251726e+000
    2.0568289954186447e+000 -1.2684902755352363e+000
    2.0006883422985786e+000 -9.7410563551258667e-001
    2.0125437979640632e+000 -8.9409732663649377e-001
    2.0001720189654089e+000 -9.8697012739112799e-001
    2.0082394040506895e+000 -1.0949843045692775e+000
    2.1285823245302868e+000 -1.4285927928896711e+000
    3.0110701109214770e+000 -2.6309842116740119e+000
    2.1940197745156333e+000 -1.5480428048385715e+000
    2.0932064159547039e+000 -1.3554369414788658e+000
    2.0954406052483727e+000 -1.3603188191448452e+000
    2.0574971926676753e+000 -1.2702515455059780e+000
    2.0541999732948000e+000 -1.2614808360593970e+000
    2.0854238955714206e+000 -1.3380900208633673e+000
    2.0741058634056442e+000 -1.3117869542654057e+000
    2.0358684368797055e+000 -1.2081711051646775e+000
    2.0045774514438417e+000 -1.0699842921149425e+000
    2.0297168933290290e+000 -8.4183340002007268e-001
    2.0932064159547039e+000 -7.3776947447583829e-001
    2.0850033309201561e+000 -7.4786676853332812e-001
    2.0148809230272708e+000 -8.8522637273985005e-001
    2.0311368309478586e+000 -1.1927101849926605e+000
    2.2589841075819437e+000 -1.6546132774878892e+000
    2.6631958708740671e+000 -2.2108891623125042e+000
    2.2651900759862644e+000 -1.6643576918967931e+000
    2.1037504771842030e+000 -1.3781290011193565e+000
    2.0181383438225327e+000 -1.1440528513013637e+000
    2.0470259684027741e+000 -1.2416387021459450e+000
    2.1408443364147538e+000 -1.4522645678826640e+000
    2.2554877963771509e+000 -1.6490943560396873e+000
    2.1676057549084637e+000 -1.5016888393841257e+000
    2.1154984252767730e+000 -1.4024714150523392e+000
    2.0371736300276977e+000 -1.2122852913115645e+000
    2.0067526696272955e+000 -9.2113237294367667e-001
    2.0784399669466898e+000 -7.5641585682322154e-001
    2.1849185837906266e+000 -6.5261010814205278e-001
    2.0464287196055095e+000 -8.0649420359535162e-001
    2.0005575025714255e+000 -1.0238918890209820e+000
    2.0820936531594958e+000 -1.3304919770517565e+000
    2.6735045230572787e+000 -2.2238298278676445e+000
    2.3582122559049843e+000 -1.8038390796807633e+000
    2.0788411194648537e+000 -1.3229608566823872e+000
    2.0409631082847892e+000 -1.2239086967386492e+000
    2.1676057549084637e+000 -1.5016888393841257e+000
    2.4351539950649834e+000 -1.9121946944854542e+000
    2.6550704734840451e+000 -2.2006616908090710e+000
    2.3901177243868963e+000 -1.8494025670665821e+000
    2.2486022642862893e+000 -1.6381620430308639e+000
    2.1018673464461242e+000 -1.3741388487913351e+000
    2.0153730845616229e+000 -1.1319128176570690e+000
    2.0005269483063750e+000 -9.7730660753327825e-001
    2.0227345528771425e+000 -8.6015957871529636e-001
    2.0429331589672510e+000 -8.1315437868401397e-001
    2.0338323614276272e+000 -8.3220419247923894e-001
    2.0004404572033527e+000 -1.0212084563493835e+000
    2.8461202640255925e+000 -2.4355324226579662e+000
    2.0896975381311402e+000 -1.3476836254111320e+000
    2.0591869646526590e+000 -1.2746704882833508e+000
    2.1849185837906266e+000 -1.5323084756485739e+000
    2.5973715753171938e+000 -2.1272899000466721e+000
    2.8991020189264214e+000 -2.4989308877893643e+000
    2.4789179157483958e+000 -1.9717556929854454e+000
    2.2443701919067793e+000 -1.6313995788384690e+000
    2.1490274720975058e+000 -1.4676800735669195e+000
    2.1869919367696657e+000 -1.5359136814952865e+000
    2.2026949199359325e+000 -1.5628301005709371e+000
    2.1514213358580587e+000 -1.4721365009625471e+000
    2.0313769309036855e+000 -1.1935172000588212e+000
    2.0005269483063750e+000 -9.7730660753327825e-001
    2.0369105736102577e+000 -8.2544966196140279e-001
    2.0150440572700643e+000 -8.8463737465069381e-001
    2.6989575797052976e+000 -2.2556206133340337e+000
    2.0458356751656099e+000 -1.2382336578215460e+000
    2.0519565880749444e+000 -1.2553937683107692e+000
    2.1431516673427393e+000 -1.4566404611152455e+000
    2.4231515675092621e+000 -1.8956195541236391e+000
    2.5705138613817029e+000 -2.0926511205936946e+000
    2.3296014889304693e+000 -1.7620952901516698e+000
    2.1828611792939512e+000 -1.5287185176956983e+000
    2.1761169094715482e+000 -1.5168605080447579e+000
    2.3119333087255103e+000 -1.7358450088463666e+000
    2.4000307329740798e+000 -1.8633681231746300e+000
    2.2687870076367651e+000 -1.6699760105391925e+000
    2.0555057546386180e+000 -1.2649784594939955e+000
    2.0001896534174080e+000 -1.0138666243223975e+000
    2.0858456903641436e+000 -7.4680114553365406e-001
    2.0446621580231779e+000 -8.0982029078426188e-001
    2.6714291171750082e+000 -2.2212276200510890e+000
    2.0177796999818285e+000 -1.1425264071700387e+000
    2.0134539799503415e+000 -1.1229131868509936e+000
    2.0561651867095625e+000 -1.2667325855171370e+000
    2.2139211374325960e+000 -1.5816833306444678e+000
    2.4127330743995481e+000 -1.8811407380072542e+000
    2.3732828771826306e+000 -1.8254825015968694e+000
    2.3139710962181832e+000 -1.7388923778793690e+000
    2.4803954605021876e+000 -1.9737441910291178e+000
    2.5652906078376141e+000 -2.0858756417827156e+000
    2.4284486300573014e+000 -1.9029482707662133e+000
    2.2056464936355957e+000 -1.5678169174432692e+000
    2.0446621580231779e+000 -1.2348418672389159e+000
    2.0004684257357281e+000 -1.0218786253430374e+000
    2.0361274599449830e+000 -8.2713505667928988e-001
    2.0172487107159345e+000 -8.7700714439650140e-001
    3.3480196917071856e+000 -3.0165108566594578e+000
    2.1379942624635424e+000 -1.4468262812212300e+000
    2.0000967552066959e+000 -1.0098849190223973e+000
    2.0026889929900400e+000 -1.0532174245101718e+000
    2.1154984252767730e+000 -1.4024714150523392e+000
    2.3139710962181832e+000 -1.7388923778793690e+000
    2.6255267788698666e+000 -2.1632619000983522e+000
    2.7054831468332226e+000 -2.2637354067929127e+000
    2.8094387538448164e+000 -2.3912468868790633e+000
    2.6967970779428732e+000 -2.2529308047863741e+000
    2.3191126970560867e+000 -1.7465579885697808e+000
    2.1051766821212374e+000 -1.3811339478441298e+000
    2.0123952871866067e+000 -1.1177041365554465e+000
    2.0105471324983522e+000 -9.0243902439024393e-001
    2.0087271492409995e+000 -9.1084250734436134e-001
    2.0287898739571495e+000 -1.1846802509894043e+000
    3.4632268443386893e+000 -3.1452912651862852e+000
    2.2344322344322345e+000 -1.6153846153846154e+000
    2.0050343710318677e+000 -9.3151924713185452e-001
    2.0276530470556402e+000 -8.4696064981930674e-001
    2.0033381966719723e+000 -9.4386786512053256e-001
    2.0398599939897042e+000 -1.2205719636167902e+000
    2.1544491327474748e+000 -1.4777401920353173e+000
    2.2034299773625823e+000 -1.5640740658983576e+000
    2.1774518839828567e+000 -1.5192188882345965e+000
    2.1269652927303535e+000 -1.4254154289642105e+000
    2.0435053351906936e+000 -1.2314632151083589e+000
    2.0002477213728964e+000 -9.8438420648548108e-001
    2.0665887122811109e+000 -7.7310744941401555e-001
    2.0619482837609562e+000 -7.8016010474103070e-001
    2.0003135378366208e+000 -1.0178644625319460e+000
    2.4516377940629503e+000 -1.9347843181342694e+000
    2.9751015013848572e+000 -2.5888260277624298e+000
    2.3009145358749041e+000 -1.7192735171340676e+000
    2.0725652451796774e+000 -1.3080944580232392e+000
    2.0105471324983522e+000 -9.0243902439024393e-001
    2.2554877963771509e+000 -6.0639344033746345e-001
    2.2460564974731776e+000 -6.1195834406564276e-001
    2.1728094832713851e+000 -6.6181639670790715e-001
    2.0967964494152911e+000 -7.3353502017249694e-001
    2.0452468247271982e+000 -8.0871071167901676e-001
    2.0488430458404485e+000 -8.0207167106016242e-001
    2.1419949569086678e+000 -6.8754526649625769e-001
    2.2902080544365866e+000 -5.8719432739980681e-001
    2.1869919367696657e+000 -6.5107825527437913e-001
    2.0001720189654089e+000 -9.8697012739112799e-001
    2.6470508974211375e+000 -2.1905431033085083e+000
    2.8171399904484704e+000 -2.4005727328444508e+000</input_scale>
  <output_scale>
    227158990. -2.1580103950000000e+008 227158990.
    -2.1580103950000000e+008 227158990. -2.1580103950000000e+008
    227158990. -2.1580103950000000e+008 227158990.
    -2.1580103950000000e+008 227158990. -2.1580103950000000e+008
    227158990. -2.1580103950000000e+008 227158990.
    -2.1580103950000000e+008 227158990. -2.1580103950000000e+008
    227158990. -2.1580103950000000e+008</output_scale>
  <inv_output_scale>
    4.4022030561062097e-009 9.4999999559779691e-001
    4.4022030561062097e-009 9.4999999559779691e-001
    4.4022030561062097e-009 9.4999999559779691e-001
    4.4022030561062097e-009 9.4999999559779691e-001
    4.4022030561062097e-009 9.4999999559779691e-001
    4.4022030561062097e-009 9.4999999559779691e-001
    4.4022030561062097e-009 9.4999999559779691e-001
    4.4022030561062097e-009 9.4999999559779691e-001
    4.4022030561062097e-009 9.4999999559779691e-001
    4.4022030561062097e-009 9.4999999559779691e-001</inv_output_scale>
  <weights>
    <_>
      -4.5945004842273240e+000 6.4502461911156286e-002
      -1.6634233716329230e-001 1.7850811364835874e-002
      7.3251584992732974e-002 -1.0471587472561489e-001
      1.3881098828510116e-001 8.8116521675375911e-002
      7.7146871656365605e-003 2.9407327583243070e-001
      1.4064582157156655e-002 5.8661310302571913e-002
      2.1920135831067524e-002 -1.1696219282479070e-001
      -1.0874557598556486e-001 2.9158645295339736e-001
      -6.9173174793123353e+000 2.0727709062352903e-001
      -1.7113977052393048e-001 -2.0495359547006094e-002
      3.3473741687027370e-001 1.7495073353467924e-001
      4.3269727186992762e-001 -4.5196530483131714e-002
      -5.5342110775747522e-001 2.5098557813806083e-001
      -1.0548275789148530e-001 -9.9276422541129727e-002
      2.2132247870732111e-001 -1.2331662346476611e-001
      2.5862660038755148e-001 -8.9909021969264369e-002
      -4.6793876079948840e+000 9.8873633945219835e-002
      -3.7797123241977226e-001 -2.2437940344228180e-001
      -1.0110881281545134e-001 7.9412725377674867e-002
      5.7196196407515676e-001 -2.6487491271589153e-001
      -4.5523275510523054e-001 1.8425949004142940e-003
      -1.7129385180213910e-001 -1.5993898878440044e-001
      -1.4830225567640290e-001 -4.1126555949659399e-001
      2.0478593044254839e-001 -3.5734400975996300e-001
      -3.6042102001041481e+000 2.8382787482740096e-001
      -5.3183887829254282e-002 -1.1682540091235389e-002
      1.8326903767595004e-001 -4.6087467617534635e-002
      3.6374965875848886e-001 -8.4589261902181925e-002
      -6.5363914712852234e-001 2.1738864434873664e-001
      -3.5578213382094248e-001 -1.2590705590942280e-001
      -5.3446250304637892e-002 -1.7084844235521413e-001
      1.1529318885801702e-001 -1.7862368670901105e-001
      -3.3657788990947148e+000 2.5661242168665299e-001
      -8.0673785529562850e-002 -4.3217873112175603e-001
      3.4417375654762128e-001 -3.0341732300586798e-002
      2.1520823578347686e-001 -9.0858536104813967e-002
      -4.8884785755502880e-001 1.9871728954908013e-001
      -3.9817417528671023e-001 4.8066595244850054e-002
      4.8959129964915367e-002 -2.4295448149108365e-001
      1.4856278927314875e-002 -3.2333464044035320e-001
      -2.0675671480348101e+000 2.4628220914910393e-001
      2.8806782226538791e-001 -3.2749697484335005e-001
      4.3063845391095507e-001 1.5527428402375867e-001
      2.5144711003584280e-001 -3.3140893251334430e-002
      -3.8878482095526617e-001 1.9897019321942186e-001
      -4.2673850656215140e-001 8.3165776258940546e-002
      5.4374611854153224e-002 -2.6644426432927903e-001
      -1.2822127269492395e-001 -4.4403505046101138e-001
      -8.6137463058275043e-001 7.8067747404983012e-002
      2.3386081452084170e-001 -1.4747249460087580e-001
      3.7238173482650927e-001 6.8524420057347324e-002
      6.5053912892002713e-002 -5.7899302572088397e-002
      -2.5611943058920211e-001 3.6648090837508890e-002
      -4.8400292065647763e-002 2.0518634560882185e-001
      7.0510266653007220e-002 -1.7492091833078569e-001
      -8.0003954974678465e-002 1.9449300493523509e-002
      1.6204370776480084e+000 1.6901688659906622e-001
      3.8440876273859570e-001 -3.1925250529042493e-001
      2.9822136582961695e-001 -1.1075568237806908e-001
      -8.0508440598210149e-002 -5.9516296716756352e-002
      -1.0672649926123703e-001 -4.3684386412125276e-001
      -1.3727358463621539e-001 -1.3492456456777299e-001
      -1.4054786427718313e-001 -3.4350144001117944e-001
      -2.3778952426253280e-001 -1.0915892419586454e-001
      1.8155063829934712e+000 1.4490516626743122e-001
      -8.1175517394746932e-002 -2.2453886275793417e-001
      -2.6129722549761088e-002 -2.2403787855129392e-001
      6.5434805815904024e-002 -1.5596352175550429e-001
      1.6610187596643156e-001 -7.3040081265506085e-001
      -1.2275133620453289e-001 -7.6443309710234053e-002
      -2.9591564814940036e-001 -3.5505151600883866e-001
      -3.0463243985371918e-001 -6.9204804638859835e-002
      1.3468356606121958e+000 3.7296218333489378e-001
      5.7529648280951036e-002 -2.9981328409322167e-001
      -2.1639136528838377e-003 -4.5133437991771774e-001
      1.4125285302848747e-001 -4.2538124664680610e-001
      2.8599499223624514e-001 -1.9168915378950033e-001
      -2.4978013368505259e-001 -3.5906777468501277e-001
      -2.5746659332391525e-001 -4.2923428196674336e-002
      -6.9408824280677586e-002 2.1762694052557957e-001
      -1.1109400562840299e+000 1.1500784625067936e-001
      9.2777857969239749e-003 1.5359037621710696e-002
      -4.2847317547447522e-001 1.2854167183425352e-001
      3.0600022943079691e-001 -1.5286566450732672e-001
      3.7652599315208285e-001 -2.1435392918246410e-001
      3.9336367576368936e-002 -1.4887938072569520e-001
      -2.9209431458394004e-002 1.1352043410159736e-001
      4.3487938935795833e-002 -8.4183930704756910e-002
      -2.5746602575089610e+000 -2.0977613585538873e-001
      -1.5845039631257740e-001 1.2864399269167654e-002
      -7.9054103364767481e-002 1.0644655348488286e-001
      -1.8684662165816951e-001 -1.0667604595120003e-002
      2.0498742484590141e-001 -2.1847066858605060e-001
      3.3048093637399301e-001 -6.1673065775190217e-002
      9.5384195703738916e-003 1.0416458718666270e-001
      1.3548813759717149e-001 2.0036725457422377e-001
      -3.5823522917893209e+000 -1.2264451239710797e-001
      5.4281348848707724e-003 -2.3860857156538742e-001
      -4.4025269743657152e-004 2.0195680323262696e-001
      -1.5416067351747234e-001 1.4404055202889635e-001
      5.0797265089514328e-002 -3.2902387693862523e-001
      2.7215598343536657e-001 1.7404830371991206e-001
      -5.9840469660326912e-002 1.8460994508611372e-001
      -1.6512399670274547e-001 1.3466620724576400e-001
      -3.0824998632675689e+000 5.5138612929513275e-002
      2.8752032517761855e-002 -2.3822905549068030e-001
      1.2488856602448278e-001 -4.2675225509980652e-002
      4.4930841944144555e-003 9.0907799456771257e-002
      -3.7609173319556199e-001 2.7755943137822270e-001
      -1.1596589511693550e-001 9.4831072553361082e-002
      -7.1089581409353314e-002 -1.0827835820664789e-002
      -2.7585109291422549e-002 -6.9154694335266317e-002
      -4.2578081274329325e+000 6.9875868465222424e-001
      3.7315097346740267e-001 2.1793586786645461e-001
      3.7252464006241454e-001 -1.2716762251227517e-001
      2.0073219487988980e-001 -5.5515021815411909e-002
      -8.9413812032519691e-001 9.8165599112792534e-001
      -6.6041551134412413e-001 -1.6954055658283759e-001
      5.6820876509680396e-001 9.4491860396902549e-002
      2.1103917355678009e-001 -5.0545078098875118e-001
      -6.4062722151643907e+000 5.2002281147620011e-001
      2.5564561222648524e-001 -6.2007623574244809e-002
      3.6864166693035777e-001 -3.9006625457001781e-001
      4.8219587560679117e-001 -2.5727234155093426e-001
      -1.4220721748839513e-001 1.9858032395819438e+000
      -5.8394118569278919e-001 -3.3274604406056074e-001
      5.9963339620184375e-001 3.9566102884614751e-001
      1.3800781491856243e-001 1.0523010463351198e-001
      -6.8028114493121459e+000 2.1908067815370647e-001
      -3.6104740077283570e-001 9.4766709152498144e-002
      1.9673650399959980e-001 1.3191921161560805e-001
      2.1347549231687049e-001 -4.1553914564423658e-002
      -1.2161172917292115e-001 2.7411852152525329e-001
      -1.6502887147803436e-001 -1.9496749006208619e-001
      1.2582607010310656e-001 1.8886175057224516e-001
      1.4382088914221705e-001 -1.8532946403296258e-001
      -4.3224903575151883e+000 1.7295726520753985e-001
      -3.8999855518098331e-001 5.6017269417351981e-002
      2.3811492236929205e-002 -3.0818952057352973e-002
      3.1816576577318190e-001 -1.2916532156489491e-001
      -6.1939570220196798e-002 5.9553038546801085e-001
      -1.2974997721238354e-001 -7.5565241725421256e-002
      -1.9690781393642446e-002 9.2334568922246327e-002
      7.2505732219728211e-002 -5.6007547837095807e-002
      -2.8151176547848085e+000 5.3625001608863007e-002
      -1.7818826330914120e-001 -9.3960523747239372e-002
      4.3477405876400844e-002 1.5219441616151497e-001
      4.7283805751437347e-001 -2.2613389339144394e-001
      -1.4707257052929895e-001 1.1743241969099405e-001
      -2.1206424123161663e-001 -2.4388648024223825e-001
      -1.1943529938939229e-001 -3.2159118980781648e-001
      7.0720358764826963e-002 -1.3273074843614274e-001
      -1.2614151286751030e+000 1.2572375908568376e-001
      -3.1777286249945708e-001 -4.9656159339353578e-001
      2.4156152813832568e-001 5.2985464939048689e-002
      3.0446638747648425e-001 -1.2127230254295310e-001
      -3.4981517532032375e-001 -1.8757196243145929e-001
      -1.6682052983807813e-001 -2.3619761071318537e-002
      7.4661165203300253e-002 -4.7979209199468320e-001
      -3.2796577835209964e-002 -5.2069523843741465e-002
      -1.4314319283101515e-001 1.0947565151006813e-001
      1.4198597858608988e-003 -1.4503351687495766e-001
      3.6119321846868785e-001 -6.6208593527549986e-002
      8.5341381761704097e-002 -2.0418110701130246e-001
      -3.6348443922282725e-001 -1.7822861447094604e-001
      -2.3926163752945270e-001 -3.7337024552547109e-002
      -1.1331863647382803e-001 -2.0899278598316651e-001
      -7.0637300909672532e-002 -3.2814584672641166e-002
      3.7263379378980649e-001 8.3931084801177683e-002
      2.6201279585581871e-001 -1.9302976892405510e-001
      2.1935133282956137e-001 -3.2827015853108371e-001
      2.2618744020394299e-001 -1.6547407744107537e-001
      -6.3801165234365831e-001 -9.6824142189587903e-002
      -1.1190186733349503e-001 -9.3965650330517195e-002
      -1.5669583964380310e-001 -4.4716330125429354e-001
      -1.2109087060065453e-001 -1.7244484339084859e-001
      4.7843358647934459e-002 2.2756555371696416e-001
      3.1107724671754677e-001 2.0996208503033739e-002
      1.4671964119822370e-001 -2.2493797368700849e-001
      3.3214049073176205e-001 -6.6414057595210338e-002
      -4.5813903291509400e-001 4.9535282684783766e-001
      -4.7157932427560395e-001 4.2067226785721244e-002
      -1.6598704255112916e-002 -8.7456798492478616e-002
      5.3095009142859632e-002 -1.5336884957972627e-001
      -4.2210176314426429e-001 4.3750887927674093e-002
      -1.6827907933023231e-002 1.6939018854289670e-001
      6.8241313163859840e-002 -7.9211116540345031e-002
      -1.6148727404423768e-001 -2.1948876364872999e-002
      2.5254398454204818e-001 1.7369323908693590e-001
      -1.0029948530558734e-001 2.3492942671787271e-003
      7.7815957388807630e-002 2.3344895843262126e-001
      6.2808362426462191e-002 -4.8576283252869272e-002
      8.8706203138415840e-001 1.0945028747386921e-001
      1.8602986524531662e-001 7.2709972748061916e-002
      2.8632314165380385e-001 -2.9643216814062356e-001
      -1.9818522941411279e-001 1.9472658349438815e-002
      -1.8920165993104504e-001 -1.2443932761401466e-002
      -1.7792784441927290e-001 -4.0800229354142070e-003
      -1.0802465488905491e-001 -6.1839626702163714e-003
      3.7115587823313395e-002 -5.2475363905231519e-002
      1.9685116153446094e-001 7.9317470032168325e-002
      -3.3953982148821693e-001 -4.2575141927257712e-002
      4.1290367693615793e-001 -3.0541734468476722e-001
      -4.4967390187537919e-002 8.4664853834978959e-002
      -3.1385461397932291e-001 2.4808095755930733e-002
      -8.7366857116122645e-002 2.7480452107593772e-001
      -6.0466448194406433e-003 -9.6986287798299473e-002
      1.4418056817449740e-001 -6.3580907290430241e-002
      -2.9423152203454045e-001 3.7003439199856325e-002
      7.5298085920430968e-002 4.2359776579527587e-002
      3.6205074256624309e-002 -1.2310396269944773e-002
      2.4256891554453164e-001 -1.1071875402815451e-001
      1.1931195691548736e-001 -8.9815302938086622e-002
      -5.3257396055872014e-002 9.5208520028214963e-003
      -9.5927584080624240e-002 -1.6455823422490928e-001
      -4.5670737400572495e-002 2.4456692115107950e-002
      -2.9016520001551832e-001 -9.3594790027479766e-002
      4.1885451191815048e-001 -1.4466953334702534e-001
      2.0928395413044457e-001 -7.5641763591952516e-002
      8.0542421901840938e-002 -2.6617088218419318e-002
      -2.8886047528582981e-001 1.2125684589257181e-001
      -5.8252611969837010e-003 -5.0593114137269601e-001
      6.8199604594923274e-002 -1.7277761016596807e-001
      -2.4622441701444103e-001 1.3567148535810659e-002
      -1.7469423104938744e+000 -9.6584767505867988e-002
      3.5461524764606084e-001 1.2122541233216158e-001
      2.0147860239375007e-001 -2.0679811297815576e-001
      3.3427341027772700e-001 -1.2142420818063847e-002
      -5.1405095395626565e-001 9.3153630137814886e-002
      3.2757302681270563e-002 -2.5497363313104271e-001
      6.6115913779863630e-002 -4.0114067341337456e-001
      -1.2435654671469233e-001 -9.8407446305013219e-002
      -4.0780864248291460e+000 6.9235308236127863e-002
      -5.5673469530349066e-002 -2.4116432772887353e-001
      2.3569202574435835e-001 6.1505060117204989e-002
      2.9016064411232817e-001 6.1053500421706722e-002
      -3.8239636086612872e-001 3.7758718267830105e-001
      -5.4231668693344864e-002 -2.8990294065593042e-001
      7.0519613681026341e-002 -3.8488607750193377e-003
      2.0241734188792496e-002 -2.6038502041014308e-002
      -3.4340768114694780e+000 2.2532540204230228e-001
      6.6747939541810175e-001 3.4816005627737165e-002
      5.0682465071347105e-001 -9.2245386020718259e-002
      3.3219441560007851e-001 1.0061208746625819e-001
      -7.1173898202701213e-001 7.4619735706983104e-001
      -2.5127199465895961e-001 -6.7529922730818967e-002
      4.2350193934258301e-001 -1.2931381183205939e-001
      -1.4423835925919912e-001 -1.3447098775649072e-001
      -5.4790956768058923e+000 3.4413608415787239e-001
      1.9210981920573789e-002 1.2193839809260136e-001
      6.6641428126543989e-001 -4.2644010062392995e-001
      4.6439277611680169e-001 -1.1575472352646042e-001
      -1.2201866759612459e+000 1.0107134423619153e+000
      -3.4321573742041123e-001 6.2052511670008401e-002
      1.2014791344270051e-001 -1.2716087027641682e-001
      7.1843382792232069e-002 -1.1928082977317987e-001
      -1.9709186078964567e+000 1.4921671985059257e-001
      6.7579357116448011e-002 3.5776410128753849e-001
      -2.3874502901542363e-001 -4.8782284521757681e-002
      -4.0164918852040071e-001 -3.1926458200517885e-002
      3.0644733592952522e-001 3.0345104124457029e-001
      -1.8093045959414672e-001 1.6214321434644796e-001
      -6.0175196570237073e-002 2.0357657540011040e-001
      -7.0595387821452499e-002 -2.3365376068949020e-001
      -1.3086561396221952e+000 -3.9454315829853474e-002
      3.8471794612439530e-001 -9.7647434723254017e-002
      1.6839379480836800e-001 4.4040274562814889e-002
      2.5622469772551004e-001 -1.7681577738996943e-001
      -3.5462026011891257e-001 4.5397990625764006e-001
      -1.7362719788530266e-004 -2.9427675469108500e-001
      8.5461658540496976e-002 -1.7707409513592020e-002
      9.2762886620925536e-002 -7.3657502935725871e-002
      1.8458779570852244e+000 1.1829046213054928e-001
      1.8438901508642105e-002 -9.8363186500966468e-002
      1.7414614896070418e-001 3.4009531406888754e-001
      -2.2434381250843505e-002 -3.6146330529184707e-002
      8.3976486640849418e-002 -2.4376786127480515e-001
      -2.3556853662983046e-001 1.7998631558111333e-001
      -1.0501746040740524e-001 -3.3948223676201933e-001
      -7.2387857049738130e-002 -5.8338698827769056e-002
      8.8821918979837799e-001 -6.9500874953158986e-002
      1.1431981640753570e-001 -5.1691335938317075e-002
      -2.9701630698367287e-002 -4.0062373684596780e-002
      6.3692258846133179e-002 -2.2583324555208756e-001
      -7.2510121045124873e-002 -2.7953372471503957e-001
      -7.3380256331970414e-002 4.2202775747256310e-002
      -5.5881321854548825e-002 -3.5146420572905582e-002
      4.9851932517783817e-003 1.5765290129426703e-002
      -2.1760375891391320e-001 -2.8597262914334530e-002
      5.3545301153092167e-002 -2.5302302700940649e-001
      2.6551479183052790e-001 -2.0465613764262561e-001
      4.7975848549697969e-002 3.0510159277038172e-002
      -4.4437980689730477e-001 3.8370000860197939e-001
      -1.5488335986529717e-001 -1.2181594674554179e-001
      1.1285441657468175e-001 -1.1454711769569000e-001
      1.1329467584974429e-001 -5.7130519784752185e-002
      -3.7955520747809784e-001 1.1353509686229823e-001
      4.0407314847896086e-002 -1.0520362138361727e-001
      1.4662529503665711e-001 -5.0963466717822214e-001
      3.5526982857096817e-001 -1.0952139636155908e-001
      -3.7712646494667246e-001 4.5242828625672343e-001
      -2.8196065522137576e-001 -2.6253251512620784e-001
      -1.6857156525712548e-002 -1.2306765814472626e-001
      4.4866422132920601e-002 -1.3623049954944955e-001
      1.1678285869005083e+000 8.8764599110119455e-002
      2.3426544402422053e-001 7.7824360784872093e-002
      1.7442627059744717e-001 -3.2961687389778710e-001
      1.5530265988312605e-001 -9.2047857714845374e-002
      -2.2299950100722660e-001 3.7795505606830804e-001
      -2.9506791778021613e-001 -1.3893761925568318e-001
      9.1724535379909974e-002 -2.0942077925129032e-001
      -1.8126189168417930e-001 -1.5738238796844528e-001
      1.0681835464976170e+000 2.3119408423019436e-002
      1.7757766650258514e-001 -2.9446512520549578e-001
      3.7320325745121269e-001 -2.1715774307493163e-001
      1.4123891495575736e-001 3.3524339891680015e-002
      -3.5037202172033682e-001 -1.1211830041874676e-001
      1.3153681865564074e-001 -1.6725823898209274e-001
      4.0304171719517858e-003 -2.7163485098996459e-001
      -4.0273854113777874e-002 -6.0284734065894338e-002
      6.8864581901591795e-002 1.4025971575555668e-001
      1.4519136500777746e-001 8.2270872736576725e-002
      2.7822096137194274e-001 -9.5065245087298633e-002
      7.8777450448137748e-002 -1.5404821463948892e-002
      -1.8715529946522766e-001 2.2649946606406818e-002
      1.2853545942574474e-001 -8.5821428395101110e-002
      6.3797377048984319e-002 -1.1592209436224167e-001
      8.1060177107526526e-002 -2.3570710950123645e-002
      -1.0349505939545447e+000 9.4697173952290631e-002
      1.6260454603900429e-001 6.6566912303894013e-003
      4.3144305260192528e-002 1.2123667425977813e-001
      -3.7095529295686019e-002 5.6167529957031677e-004
      -2.0563985306140187e-001 1.1472190694809847e-001
      4.2960603092888107e-002 2.2837440201440375e-002
      -3.3862001035282967e-002 1.7753398225917649e-002
      6.1702111765803112e-002 -9.5985969645613664e-002
      -1.5820265397030882e+000 6.5601933875790663e-002
      3.0212239531423618e-001 -1.2997968487484338e-001
      3.7252486818261049e-001 1.7379721043399984e-001
      3.1123314544205127e-001 4.4614249240241162e-002
      -2.0259888363485287e-001 2.4334208302778060e-001
      -1.1459506415669379e-001 -3.5900563129937113e-002
      7.7278252120973584e-002 1.2835272443870185e-001
      2.2498362877697123e-001 -6.4080228331003491e-002
      -8.9508268545394210e-001 -2.9665122215672586e-002
      2.9282801334288711e-001 1.6313965820433182e-001
      -4.0244870786621006e-002 -6.1036698521180738e-002
      9.6669666464918452e-002 -1.8196274967424439e-001
      -7.6960033070899214e-002 1.7158329027744379e-001
      -3.1680833190108011e-002 -1.7025254181939295e-001
      1.8142019676444249e-001 -1.0150678006044207e-002
      1.1323982742946957e-001 1.1643345474166603e-001
      -1.4640713826792999e+000 -2.3503451553284069e-004
      4.3702793679138352e-003 -7.9484604155681218e-002
      1.4417162951001078e-001 -2.0332355721991641e-001
      1.0340880139507844e-001 9.6963609567257639e-003
      -2.4924359007708549e-001 7.3488365051389337e-002
      2.2042272434696700e-001 7.7367298798988654e-002
      1.1479846795878455e-001 -1.4764692261317351e-002
      8.1057785844805968e-002 3.1209047737878253e-003
      -2.8146317718975994e-001 1.4607672831991164e-001
      4.6250537374832631e-002 1.1657329481496587e-001
      -3.5864231701561139e-002 -2.5312660179260527e-001
      -2.1123921038741716e-001 -1.7102331403337720e-001
      1.7595440715962061e-002 -3.3389806527330118e-001
      -1.5915983086055663e-001 2.8086248062078500e-001
      2.1168881234072547e-002 -2.0472123327948735e-001
      6.2339378952547236e-002 -4.2509035905318615e-001
      -2.9433704016465834e+000 8.9154761703982149e-002
      -9.0052845274786686e-002 -2.0847148982650793e-001
      2.0394547439998556e-001 -1.4300283331060104e-001
      -3.7795891349277667e-002 -2.5337270477678558e-001
      -3.0361031799278193e-001 1.3853004667192789e-001
      -2.1510257454718879e-001 -2.4744269815774145e-001
      -6.0138799357676131e-002 -3.0730564215398732e-002
      -5.5166998097896422e-002 -2.9739787730617428e-002
      -3.9455866646829389e+000 1.7061877028744168e-001
      -2.3550694392840577e-001 -1.1429655096794485e-001
      1.0330809898944651e-001 -3.8125304588298531e-001
      -5.9038567248329163e-002 -6.4962094979980634e-001
      1.2562549026385930e-001 5.5798897209306286e-001
      -4.1383728176297535e-001 -3.8652695524651826e-001
      -1.1715655887271544e-001 3.7474435300923280e-002
      2.4726480147055682e-001 2.1889213437009947e-001
      -3.9999533995572287e+000 3.5854558568034697e-002
      -7.1368684298481727e-002 4.2300589548156436e-002
      -8.7449627722655451e-002 1.0187296220317872e-001
      1.8800210237955840e-002 1.1332225249434545e-001
      -5.2896021883424460e-002 -6.1717087102631810e-002
      -2.3678665748200797e-001 3.4116199368936337e-003
      -8.6203637099976610e-002 1.6814697688582728e-001
      1.8283906974001529e-001 -2.8087707574025539e-001
      6.8274881745729585e-002 1.1203415822748572e-001
      -2.6648442980276854e-001 -3.9587758133455248e-001
      -7.8544103763140347e-002 -2.8433891592641074e-002
      -3.1318012760900023e-002 -8.0965751928778508e-003
      -2.2633686971277614e-002 6.4603389649797033e-002
      -9.4938539703410416e-002 -9.5761601651256550e-002
      -7.1365313311361575e-002 -3.3484033381727445e-002
      6.0229065604400576e-002 2.4564028754153228e-001
      2.0117815259882104e+000 1.7311016596108782e-002
      1.4056089462927657e-001 4.5523091115447077e-002
      -5.5495047987909156e-002 -2.4818139671491238e-001
      2.3301273591446911e-001 -1.0040906558907907e-001
      -1.0811163853417477e-001 1.9512276218272825e-001
      -1.1463552976115540e-001 8.7591431692408073e-002
      -7.7555678944173215e-002 -1.7439115673609959e-001
      1.2119566418732690e-001 -6.3212555336114140e-002
      6.5167107186574036e-001 -4.8477452431134167e-002
      2.5978639531929054e-001 2.9744616213890851e-001
      3.0215381705512645e-001 2.2059733079599278e-001
      -1.8760758188832957e-001 1.2729130245747472e-001
      -9.9322523048043287e-002 1.0441479420627975e-001
      7.0752874367172230e-002 2.2870610499635671e-001
      3.3466249724088779e-002 5.5321075453944192e-002
      1.3958831038466052e-001 1.6843241316063509e-001
      1.1724666348171642e-001 -1.0498032433975492e-001
      5.9304874685928814e-002 -1.5206334821803660e-001
      -2.4845696428744863e-002 -7.1855169988186432e-002
      9.9355783184492175e-002 -1.8363497927170500e-002
      3.2354224806609523e-002 -1.5896648801912108e-001
      -3.0410207299529944e-002 -8.9251616352219419e-003
      1.0729517331485493e-002 -1.4256103145844193e-001
      -3.9951426144674068e-003 9.1059822563885798e-002
      6.3859672912068299e-001 -2.7928969256301841e-003
      2.5897059896626079e-001 2.7587959105020609e-002
      7.8150783587373776e-002 -4.2263346044016242e-001
      6.6259063369103116e-002 3.1924796681963973e-003
      -3.3656941132638590e-001 1.6182371707827420e-001
      -1.3085092272619303e-001 -2.0086035627950677e-001
      -9.2775417769356383e-002 1.8843067308595002e-001
      -2.8053349199529055e-002 1.1322008337078843e-001
      1.0474863999714865e+000 6.0888996688801648e-002
      2.2615744431900373e-001 6.9662443316082595e-002
      -1.5705497667478341e-001 -4.7513513142059982e-001
      -2.5050542144761738e-003 -6.8314129312584890e-002
      9.0031489222505340e-002 4.7611522893036268e-001
      -4.0287162780672736e-001 -2.2837982580950367e-002
      -6.2432674403018730e-002 1.1485486431559074e-001
      2.0015564417479315e-001 1.2630174453845491e-001
      1.2888161318426135e+000 7.1297218359982234e-002
      5.4930148254763646e-002 -7.0839182212366250e-002
      1.2496605516930451e-001 -3.7923334149610414e-003
      -1.8665722126518530e-001 4.3507358168853191e-002
      6.2862915078163870e-002 3.4776699324647381e-001
      -6.1773606672862948e-002 8.5495996427594687e-002
      1.2862863421941217e-001 1.1815027781153235e-001
      2.3143962684491748e-001 3.7363650045396789e-002
      3.9374800815484327e-002 1.8897535249473654e-001
      3.7724207252590403e-001 5.2835475189061554e-001
      -3.0892057559072200e-001 -2.0137740683762531e-001
      -3.6186896111188754e-001 -8.7812963742847569e-002
      1.7405533932671952e-001 6.3360432548538437e-001
      -3.8714602902920270e-001 3.4089542105398468e-001
      2.1393248284371821e-001 6.0105942628173714e-001
      2.8935955117551709e-001 -1.6149245485833530e-001
      4.6598372473810273e-001 -1.5366318289992891e-002
      5.6134394472467000e-002 1.1944096688864386e-001
      -1.4378819977808041e-001 -8.3862592405434269e-002
      -5.4501425104917796e-002 -1.3726825921957647e-001
      3.5805995022570164e-001 -8.6600644821460647e-003
      -9.0501263885291242e-002 1.6521166254215186e-001
      2.3668984023448231e-001 2.9728229030581649e-001
      3.9901701702496256e-001 -1.7369539625394423e-001
      1.2729088148850307e+000 -3.6868769020341301e-003
      2.6242299658043988e-001 1.0095446443689444e-001
      8.4090561589457685e-002 -8.9474089710045931e-002
      -1.0620978209206094e-001 -1.6523132189182330e-001
      -1.3519172025441123e-001 -3.1517727125957679e-001
      8.8053428951876983e-002 -2.2032255694474714e-001
      -7.0746094940560347e-002 1.9865096925858969e-001
      2.6660419921631695e-001 -1.3674178839350135e-001
      9.9664889074832186e-001 -9.8087974859107543e-002
      -1.0661026852943484e-001 1.3153498127277863e-001
      3.7794718048513626e-003 2.9941553384597980e-003
      -6.1084227212725856e-002 -7.5819298025237958e-002
      -9.1781506382425104e-002 -1.7472286200917991e-001
      2.0299948371158474e-001 1.4258648134797769e-001
      1.2001157380057356e-001 -2.0812476105932534e-001
      2.9521445575694555e-001 -1.6588913937109787e-001
      -3.4774537876508865e-001 9.0502218905216709e-003
      4.6562211351219948e-002 2.8171982714700039e-001
      -2.0908393922316981e-001 -3.1751452602571578e-001
      -2.7254918627247143e-001 -3.4879172145269260e-001
      2.1028204997172628e-001 -1.2008925263098535e-001
      -2.7058762957270461e-002 -1.2242490514329679e-001
      -1.1466260867576306e-001 -2.1716554409713332e-002
      1.5774416550655312e-001 -3.3127607786073959e-002
      -2.2764663557405354e+000 -6.6002684183110519e-003
      -4.0544461928009673e-001 3.1390288508720104e-001
      1.5067906570377593e-001 -3.8550316206630064e-001
      -4.8691890471384253e-002 -2.5192930901811772e-001
      -1.7813347251260986e-001 7.7455311534449317e-002
      1.5762640360279814e-001 4.1472097876937293e-002
      5.9993329348922438e-002 -2.1085060945575845e-001
      1.4147594370703798e-001 -3.8239704651647034e-002
      -7.8409605180423325e-001 4.3544268826264720e-002
      -4.8767678121114733e-001 -1.4922062958680540e-001
      -2.8651537918257830e-001 -1.5416730040635310e-001
      5.6211178749914603e-002 -5.8841865507941438e-001
      2.6941225900488958e-001 -2.7037016934821329e-001
      -6.1248239689880059e-002 -2.3324234481745687e-001
      -3.9644091727661884e-001 -1.2496860344699523e-001
      -5.4302745392119732e-002 2.7032161896136775e-001
      -9.9692144198392632e-002 -3.3826559045216115e-002
      -4.5721079572659848e-002 -8.9361378047433757e-002
      -2.4666427598259807e-002 -2.4077839379829269e-001
      -3.6995758329319250e-001 -3.3409642131411293e-001
      1.5194743499419347e-001 -1.0925595515001491e-001
      -3.7373963717429826e-001 -1.6611309884072945e-001
      -3.2822967541704662e-002 3.7876310292097198e-001
      -1.4821167039460589e-001 1.4029708101666213e-001
      -1.8352878273076643e+000 1.9223088751643258e-001
      -1.1095295093124641e-001 1.3209114984893067e-001
      -3.2394031666635931e-001 -8.6310410323197737e-002
      -3.5592560169888354e-001 -1.0640574639834917e-001
      1.3123850429199907e-001 2.7344927785652468e-001
      -1.8175362630979594e-001 1.5257773817157816e-001
      1.1511160278289176e-001 2.7435656057975516e-001
      3.3396913672335343e-001 4.8208086168683238e-002
      6.7128807080211939e-001 -6.2192428879879906e-002
      2.9265393309270055e-002 -8.3381653697842215e-002
      1.1994961039893602e-001 -1.7474777146218884e-001
      -1.6852644950164392e-001 -1.3070315402200861e-001
      5.1959923993126475e-002 2.1305943761610821e-001
      -2.6122924769671196e-001 -4.0387047417792032e-002
      -8.6594275281514539e-003 1.7140873282818675e-001
      9.6935476574617929e-002 4.9372466156803851e-002
      1.7135207190517319e+000 7.9952452818531486e-002
      -1.9728938919830439e-002 8.5215289276710293e-002
      5.2296630727340754e-002 -3.2539320167107572e-001
      -1.6306686271045912e-001 1.2737377774834013e-001
      -6.9023927265502050e-002 1.6720729708683824e-001
      -2.4950760520925511e-001 2.6596047188679106e-001
      -2.2391689753479341e-001 -1.3098645550916399e-001
      6.5203734598730549e-003 8.1784546760520896e-002
      9.3377669702686938e-001 4.6981233652130125e-002
      6.5932764320697874e-003 5.7713275457735667e-003
      4.5163194555237107e-001 -1.7454217369785238e-001
      -1.2213662688483792e-001 8.8797627303734805e-002
      -2.4375995710520804e-001 6.5995705443914560e-002
      -7.8764596574367782e-002 -7.1444282011114732e-002
      -1.0692004957107812e-001 -2.7029682013127395e-003
      -1.5999268765923422e-002 9.2714030282883192e-002
      1.1511656618482089e+000 1.8178814987660452e-001
      -3.4173688229493093e-001 5.0517313350499631e-002
      -7.5180857562421641e-002 -3.0292507884202985e-001
      5.5378773988408007e-002 -9.3124937939437533e-002
      -1.2066810461841708e-001 1.7566307403643036e-001
      -9.2540904016448836e-002 2.9890447261982572e-001
      -9.3695753740764234e-002 -1.8504964791254400e-001
      -2.1351434860254748e-002 1.0298485339319725e-001
      1.2566993389161152e+000 -7.7498007220558511e-003
      -6.7472522015082595e-002 -3.4188996610236659e-002
      -2.6947324410412482e-001 -3.6327430196207017e-001
      1.7460317451521751e-001 -1.5812232556428629e-001
      1.9274961011013891e-001 3.2199555142476682e-001
      -2.5803947466718363e-001 -1.6618403758310524e-001
      -2.5631930657482770e-002 -4.0202966439653605e-002
      -1.0272496030193021e-002 4.2945918995857752e-003
      1.6756535842684934e+000 -1.5379096884914795e-001
      -1.2675640289380563e-001 -1.5292986781952311e-001
      -1.9277860490559770e-001 2.6204828388649265e-001
      -1.0156937064174629e-001 6.5320186962115862e-002
      9.9944229487555894e-002 -3.3647643693877538e-001
      2.8661013584442024e-001 6.1521451215407065e-002
      -2.9958740228363444e-002 -7.2253795695161063e-002
      8.5232683287835218e-002 1.3724370525895419e-001
      1.4083705140400846e-001 4.1759015662281705e-002
      -3.2732672495520876e-001 2.0622163249361664e-001
      -4.4194640907465288e-001 2.2876486376186011e-002
      2.3089815635076624e-001 -1.6362280648705885e-001
      5.2688497360036846e-001 2.4869480033008196e-001
      1.9630413816872031e-002 1.6411199804628557e-001
      -7.6508401007210666e-002 2.1453593426994433e-001
      8.3235274267881756e-002 -1.4296893910233921e-001
      6.2430807909625419e-001 1.1732757221785389e-001
      -1.1367000045977376e+000 6.9880053521298258e-001
      -9.4193305446535558e-001 -3.4831348716821220e-001
      -1.7172383663236410e-001 -3.1121193316021761e-001
      7.3690920040550378e-001 1.1049287363519918e-001
      -1.9520895835439667e-001 2.9179216971200589e-001
      -3.0795362425392675e-001 5.3361894094099671e-001
      2.0785271448065831e-001 1.8601620929530219e-002
      2.7049330098100888e+000 6.7077496103405951e-002
      -6.1566861077207624e-001 5.2519400543863226e-001
      -7.1506704594748849e-001 -2.9528626142083497e-001
      -3.3735322286922997e-001 -3.4067007338516347e-001
      7.9720196751548866e-001 -2.8142904096623600e-001
      -4.4688323480009569e-002 1.1141866378010035e-001
      6.0468740321019517e-002 2.4814915974023660e-001
      3.6754541521959916e-001 -8.8536958696007681e-002
      1.8145781537737116e+000 -1.2323544257660667e-001
      -4.7960502070293987e-001 6.1710186792777355e-001
      -4.7563064733296306e-001 -2.5170346248759196e-001
      -4.0965595828533080e-001 -1.7916348290783507e-001
      3.5686973944573580e-001 -1.8510044435024109e-001
      2.2081857059938659e-001 1.6835568206747675e-001
      -8.1766365749502579e-002 2.2257143507360677e-001
      3.5424973644898311e-001 -2.2633317785269180e-001
      -1.2932238842897428e+000 -1.4762079983401283e-001
      -5.6059255504530625e-001 3.8946949037048179e-001
      -3.2520574432800464e-001 -3.4780445844245295e-001
      -3.3800981201195669e-003 -3.2663878214553194e-001
      2.1823895111765296e-001 4.3050535743422678e-002
      1.4122580104149077e-001 1.6736457005146359e-002
      1.4481308324853849e-002 3.4906680077486249e-002
      2.5886058915493626e-001 5.8269853627336651e-002
      -2.6494912002793094e+000 -7.6514474920584954e-002
      -5.1503171777500922e-001 2.6649545977188788e-001
      -3.0914971484738812e-001 -4.7461444784774054e-001
      -2.3343262865529874e-001 -4.1311478514022998e-001
      -2.1302038779193282e-002 1.3728971796174155e-001
      6.9459920704891653e-002 -2.3799969008635014e-001
      -7.5993115817344858e-002 1.9433713508650610e-001
      1.8465471084611351e-001 -6.9343740299321480e-003
      -1.1679346707110800e+000 2.2332009165903617e-002
      -1.9552630511566252e-001 2.7538342416378042e-001
      -2.8419664345721873e-001 -3.5957127314895160e-001
      -7.2542388061048475e-003 -3.1069311673353334e-001
      1.1528421124571640e-001 -1.6422764950850016e-001
      -4.9626389163596497e-002 -4.9949625438939417e-002
      -1.1841654833145576e-001 -1.5233418786668479e-001
      8.6292776332278512e-002 -1.1309732434979722e-001
      2.5622131515199267e+000 -1.0864613721904130e-001
      -3.5030300286333044e-001 -1.1389769919874880e-001
      -3.0985836831537916e-001 -3.3295417500167540e-001
      8.2583686875405932e-002 -3.3014786646319549e-001
      -1.3465178578985615e-001 -3.9590158047610829e-001
      -8.7354440345364187e-002 -2.3365862401895418e-001
      -1.7348401240511430e-001 -2.4175069010255049e-001
      -9.2988675967323173e-002 7.5150637597373782e-002
      4.5259538940574275e+000 -7.1923229894173712e-002
      1.4731213961339101e-001 3.0899512981952976e-001
      -7.8172498670955604e-002 -6.7298998978278846e-001
      -2.2062884620340092e-001 -1.5886826492301975e-001
      -5.8224761549099957e-001 -7.5114529383129180e-001
      -2.7209071852026992e-002 -2.7514686236189304e-002
      -3.4223017213999629e-001 -3.9982133971646699e-001
      -2.3462959786384799e-001 -2.7698715571080314e-002
      1.5688053036360755e-001 -2.2856206830294881e-001
      -1.1937607784740874e-001 -5.4030708150143003e-001
      6.4110582802044958e-001 1.0399502097521707e-001
      -3.8025674655891584e-001 6.9645182180668994e-002
      -1.4489462562950989e-001 -4.3025137012743131e-001
      1.1612450193399565e-001 -7.0739422560360723e-003
      5.8055932617595583e-002 -1.4402034470172043e-001
      1.0222827945899605e-001 4.3758928763841137e-001
      1.0511753957368282e+000 -2.0368923228535915e-001
      4.7236630717494049e-001 -7.2636594391154372e-002
      2.1280723428437254e-001 -2.7172330496678104e-001
      -6.2594869667207745e-002 9.5480526851507916e-002
      -5.8279204694013254e-001 -7.6888901031045911e-002
      1.7592701333272298e-001 -3.5391555633933064e-001
      2.0577500455017908e-001 3.9270472824614280e-002
      -9.8988203547819800e-002 -7.8041807489720894e-002
      1.0497824967269893e+000 -5.7474441943942314e-002
      7.7954833240737043e-001 7.3152463884953084e-002
      5.0263232181318906e-001 -1.5869938313700194e-001
      -6.8452412879524482e-001 2.1515957352887588e-001
      -7.1522317193063811e-001 6.9496596769900595e-002
      -1.5062297520226023e-001 -3.7899113158259412e-001
      2.3061074967213485e-001 2.2145360637010422e-001
      -8.7479359813936494e-002 4.3407748930611827e-002
      7.9102961285225482e-001 4.0856465176037131e-002
      5.9473356187823745e-001 -1.2476414620422580e-001
      3.7128268486819926e-001 -2.7429320784358496e-001
      -2.9846003852368092e-001 1.3843520849046631e-001
      -6.8819774137990986e-001 3.0862222340308804e-002
      -9.8007852469548892e-002 -3.7612224267231631e-001
      1.8263029166696274e-001 -1.3124679194104885e-001
      -4.5945436165127321e-002 1.4254739367950938e-002
      1.5125404202279407e+000 3.5678498906688547e-002
      6.0869981682323038e-001 -1.7315149152024037e-001
      3.4854358790460654e-001 -3.7324362739029981e-001
      -2.6094340901329810e-001 1.0881891004579947e-001
      -4.2047324404928016e-001 1.9753152310213815e-001
      -2.6518045830410092e-001 -2.6593389461552380e-001
      1.4548557651865587e-001 -1.0999690032654653e-001
      -1.8696046608512482e-001 -8.5254087154615715e-002
      9.5554045811116062e-001 -2.0308651630589897e-001
      2.9988482948886974e-001 -9.1701657108865561e-002
      1.2247517539911013e-001 3.4102367777612563e-001
      1.8326016911676252e-001 1.1984713834784332e-001
      7.4618754177033786e-002 -1.8474647938316843e-001
      1.5708106515768616e-001 -2.2689691151226166e-001
      8.4127270044541319e-002 -1.2615030837909399e-001
      -1.1778439352955934e-001 -4.6862584515047577e-004
      8.5665164317655518e-001 -6.2749870816112691e-002
      6.7298092057667136e-001 2.0694155162596761e-002
      2.0469728359989356e-001 2.9115073098001959e-001
      1.5536242500061426e-001 2.0247144100369657e-001
      -2.5963108368358739e-001 -7.2772898332018582e-002
      2.2906043774706786e-001 -7.7762524507912378e-002
      1.5552306470415958e-001 1.5629515343512958e-002
      -2.0946646899999188e-001 -7.8680820219974898e-002
      1.3394469629870587e+000 7.6253569858209344e-002
      6.7573665301406585e-002 2.2212080977017476e-001
      -9.7313393663021400e-002 2.5200846031474999e-001
      1.1380010715658447e-001 -1.4418390391359909e-001
      1.0560292740073349e-001 -7.1425974014445309e-002
      -4.1562701734156375e-002 1.5733933262649855e-001
      -2.2770792595241099e-001 1.0191131330325509e-001
      -1.5636412581958156e-001 2.7126160619170277e-002
      2.1465390677536447e+000 2.4305101036921112e-001
      -3.5725128002958145e-001 4.2498579085980698e-001
      -4.4236491192976890e-001 3.4170027059858436e-002
      -2.2452455490619064e-001 -1.2701410858951259e-001
      2.0308363790572914e-001 -2.6644803711155013e-001
      -1.8028354773071401e-001 4.8965649493476449e-001
      -6.3090466296810144e-002 2.5776713778814569e-001
      -2.8114930278428946e-002 -1.6544208924998866e-001
      2.2624838439812658e+000 5.2735636989437479e-002
      -6.4457189694245987e-001 3.9819750064260517e-001
      -5.7340835364577492e-001 6.8245029942920352e-002
      -1.7023837565704245e-001 -5.6495722149704095e-002
      3.6469308857535687e-001 -3.9244979213289018e-002
      -1.6545145479606349e-001 4.6519596968460697e-001
      2.6091103944515474e-002 8.8303635189362253e-002
      1.9493277024154448e-001 -1.4618179922678579e-001
      -7.5279821843107142e-001 -3.6711959126802411e-002
      -2.7817899414334607e-001 3.3919795639417299e-003
      -1.9876317392094303e-001 -1.2660555367064766e-001
      -3.9694483109012368e-001 -2.0927290370597579e-001
      1.6187145381762544e-001 1.1861727364536445e-001
      -6.6430985724067873e-002 1.2626101361840647e-001
      3.9733616324232557e-002 2.2407016986098391e-001
      2.4988776540327942e-001 -7.0468904740380159e-002
      -1.6160024683121434e+000 1.0384582470945025e-001
      -3.4059168548284718e-001 1.6075162540970983e-001
      -3.9960287543242357e-001 -1.7619835567607922e-001
      1.4582832249962364e-003 -5.1656993067663415e-001
      1.9278995807608690e-001 -2.2771968921422811e-001
      -1.0668997946151661e-001 2.4773638854699684e-001
      -2.0538769241869587e-001 -1.3938105678320650e-001
      4.0400105775577639e-003 -3.0523622459397542e-001
      -2.0921682599296347e+000 -3.7924711639441347e-002
      -6.8925989937769924e-002 1.4634336905027853e-001
      -8.2633676574911330e-002 -2.8915811419416676e-001
      -1.4771594870736618e-001 -3.6769687322823236e-001
      1.9541156899010721e-002 -1.3443745461381743e-001
      -3.5489082622297934e-002 -1.7672185563502271e-001
      -1.4532825349758774e-001 -3.5979804329395196e-002
      -1.5983360437851809e-002 -1.1079369039677697e-001
      1.1827231209428379e+000 -5.5197920261425157e-002
      8.1127378093670169e-002 -2.6737606327650369e-002
      -1.4852560090902375e-001 -1.4069321911604346e-001
      4.8582583811188337e-002 -2.9593765356618518e-001
      5.3573961000136658e-002 -3.3185765393913075e-001
      -2.1753601096589731e-001 -7.2418358301616109e-002
      -1.7895441798117839e-001 -1.4562125370728499e-001
      -2.2499381392242310e-002 -1.4432362108112537e-001
      4.8656807999289313e+000 -1.3181998319357252e-001
      9.6241081347101520e-002 3.0937697391130831e-001
      -1.2635942317145293e-001 -3.1744517355317925e-001
      -3.7902392058833773e-001 -1.9186755250120668e-001
      -3.8970693551892205e-001 -8.1380424748087465e-001
      7.9548530555488148e-002 -1.5262476535954689e-001
      -3.3815462188170142e-001 -2.7849562335220324e-001
      -8.5648862710522550e-002 -1.5853520760980070e-002
      4.9406428590086335e+000 -2.3873677095574999e-001
      -2.6815248701771294e-001 5.8460323093156019e-001
      -1.8531330533757814e-001 -6.8527831695658370e-001
      -5.2507497034195072e-001 -1.0197617541231446e-001
      -4.3713719656306482e-001 -4.5697833969024820e-001
      -1.8302506331966453e-001 3.4958541002635568e-001
      -1.7769239170366594e-001 -1.2480234839253121e-001
      -2.4710023006182627e-001 -4.5101267294609504e-002
      -7.7718236968679660e-002 -1.2244328771795860e-003
      -1.3703634407246007e-001 1.8174270592077466e-001
      3.1529583129589833e-001 1.9067305142977248e-001
      -3.9589583094106368e-001 1.1730640273402897e-001
      -3.3153134502676762e-001 -6.5159779274363380e-002
      2.1652317688347769e-001 4.9678659707721345e-001
      1.4809275901276353e-001 4.1073378086298032e-002
      -7.6291293659316054e-003 4.3728930123391380e-002
      9.0771962325778721e-001 -1.7215684931949218e-001
      -4.3419808330592904e-002 -1.4156005441892259e-003
      1.7504870006329853e-001 -2.8061964397373224e-001
      1.2410504315253934e-001 3.9145528658945716e-001
      -2.3653010803942887e-001 1.9971446326736891e-001
      3.1215333556577740e-001 3.6020906105903960e-001
      2.8920093417157361e-001 -1.0105466380526343e-001
      -3.2260867102832641e-001 4.3396806525827425e-001
      1.3117350218137180e+000 3.7023474440984978e-002
      6.6247226548047655e-001 -3.6761012448899844e-002
      4.3401423378578569e-001 -4.5246120824948166e-002
      -1.3529701413223569e-001 3.5057106762137930e-001
      -7.0857436501727045e-001 3.7204003978913530e-001
      -7.9917354387659567e-002 2.7875718005062672e-001
      3.1741921141834767e-001 9.7126122249023821e-003
      -4.3305938161374602e-001 -5.5720954180074967e-003
      1.3321852081572327e+000 -2.9980806411058398e-002
      2.5569328365298338e-001 1.9382234489014480e-001
      1.6391952637209534e-001 -1.4088437216502156e-001
      -2.8544951219347675e-001 4.1310629086833583e-001
      -6.6327245751846520e-001 2.7982087627523172e-001
      -8.8992706608639366e-002 -1.0921174007438821e-001
      1.4907762195518023e-001 -7.9581232220972353e-002
      -1.9834581847743402e-001 1.0252698743898901e-001
      4.5247563632705490e-001 -2.9161972923576196e-001
      4.3037834483601500e-001 -7.2897723350557275e-002
      2.4144510504211800e-001 4.1442023759949331e-001
      -3.5022293056243248e-001 5.8939226836832992e-001
      -5.6418003959344754e-001 -2.7107545209136474e-001
      2.9789433111888225e-001 -7.5927292211355357e-002
      1.9343474770011859e-001 -1.5608174284489354e-001
      -2.5481071595265492e-001 6.6755279544842741e-002
      -2.9381203020876057e-001 -1.7701243185536875e-001
      4.7597956597738766e-001 1.1774123172508245e-001
      4.0591873443413262e-001 3.6257515163924348e-001
      -3.4143178714155098e-001 4.5440457679831553e-001
      -8.6449184512196031e-001 6.5152699839565509e-002
      2.6791202619883069e-002 1.4871552063366369e-001
      5.5447493038095576e-002 -1.4024829677965636e-003
      -2.9869680616179511e-001 -5.3299119507800780e-002
      1.7301781337234969e+000 7.9297040511648442e-003
      4.6393921036188718e-001 1.6065568031993838e-003
      2.7615171218755508e-001 3.5412807545687558e-001
      -6.4596869862397832e-001 2.0558963285063794e-001
      -9.3778890288479089e-001 -2.7727699576075648e-001
      -2.7147337762799906e-001 1.2863344902712426e-001
      -3.5103888888399076e-002 -9.0281825323905621e-002
      -2.5650295699637810e-001 9.5400583969471545e-003
      1.4855346105190739e+000 2.9113331855364571e-001
      5.7004070176203803e-001 5.5190803091492359e-002
      1.2546929077277771e-001 1.2730281776492233e-001
      -3.8346887637891880e-001 7.4920804762562965e-002
      -6.0665693879147597e-001 1.7207446198525903e-001
      -4.2535774134196602e-001 1.8625920951550405e-002
      1.3232588407512888e-001 2.2389670610265164e-001
      -1.9554555286884181e-002 -1.3749901168135573e-001
      1.0914191271841647e+000 2.0257605490819158e-001
      3.9407438897070762e-001 1.7142537384143491e-001
      -8.2632296994909607e-002 1.5317997929885077e-001
      -1.2011421869104968e-001 6.7489266267000234e-002
      6.8572720215837143e-002 1.2317960808504906e-001
      -1.8687564027934067e-001 2.5907768383905438e-001
      3.2661653290376519e-001 1.9040969495056642e-001
      -1.0979583802740560e-001 -1.1710889023434293e-001
      -4.9711159106620306e-001 1.9306970299122844e-001
      -1.6994882334140080e-001 6.2428639120600385e-002
      -1.0325420950113323e-001 -2.8050640632893843e-002
      1.3205236719632038e-001 -3.1201807786070783e-002
      2.9206692541745272e-001 4.1288569590028967e-001
      -1.7976252890527489e-001 2.1523786269853679e-001
      1.1610129858561510e-002 9.6395352077570922e-003
      7.3760855605007447e-002 -1.4207295458119090e-001
      -1.3565102578732933e+000 7.4385860620162572e-002
      1.0822697375419316e-001 -2.9790802925241233e-001
      4.8747163713903433e-002 2.7225424425713463e-001
      1.4127947853046105e-001 -1.1952604979663661e-001
      4.8505193647180894e-001 -1.2683888323190484e-002
      -7.4907758588337592e-002 9.3102243010683011e-003
      -9.0508535869589388e-002 1.2513410277557729e-001
      -1.0243265676589015e-001 2.0646204206809565e-001
      -2.3466147888454594e+000 9.3374251547571799e-002
      -2.2287753040654765e-001 5.3041444881585860e-002
      -8.7500062566666689e-002 2.3397038867877948e-001
      -1.0977020958479780e-002 -8.6973306421009505e-002
      4.1628048489509012e-001 4.4182600632190420e-002
      -2.1665155912409820e-001 4.0356793782717493e-001
      -4.0167638770780423e-001 9.4386010156986472e-002
      -2.2312339062808725e-001 -7.3229376727103293e-002
      -1.8826278209272100e+000 -1.7972559657791459e-001
      -2.6616633710961451e-001 2.5137274308608726e-001
      6.4604570344250776e-003 2.0806833196820823e-001
      -5.1292230816192119e-001 -3.5513327384467927e-002
      7.0071667898547879e-002 -4.6012490123868638e-001
      -1.7846759751969607e-001 1.3379021279192022e-001
      -2.4107561418409945e-001 2.1123740897962207e-001
      9.8575231934379184e-002 1.5913176686731156e-002
      1.9930479313257579e+000 2.2936497809414334e-002
      -1.1133092658047768e-001 4.0179639842151260e-001
      9.1771225663398479e-004 -3.2727816702552495e-003
      -2.2017110055399441e-001 -8.5855946514295109e-002
      -1.9836346776842009e-001 -5.9366506672242891e-001
      -9.3800269616105950e-002 2.0443154000154790e-001
      -2.8046188904550945e-001 -8.4902599310922255e-002
      2.5026973523849172e-001 -1.1431861956687940e-001
      4.3441870367577193e+000 -6.2509319525996115e-002
      -1.1216395782956318e-001 1.4328811988122830e-001
      -1.8800592445416045e-001 -6.7799051489392789e-002
      -4.6415680058237191e-001 -8.2381534029418335e-002
      -1.6693390175564868e-001 -5.1869505196034493e-001
      -7.8229999496295957e-002 3.6464249228855405e-001
      -2.0250402859223654e-001 -5.9117023360781132e-002
      -4.1763629373962406e-002 -1.3953245170990961e-001
      5.2564899281512663e+000 -4.6643569874779238e-002
      -4.1050675260694905e-002 4.7035165293621839e-001
      1.0014738449380234e-001 -9.6791622484822404e-001
      -6.5780228787943029e-001 -1.0619495258856271e-001
      -6.0469930599795152e-001 -3.6068820182612948e-001
      9.9130740205948073e-002 4.9093072891334105e-002
      1.8366508273809659e-001 -1.7756468120694952e-001
      -2.9021870330986371e-001 -1.7759220555517286e-001
      -3.3564608050582083e-002 -4.6182856309967830e-002
      3.2205438941007969e-001 3.3122359052484640e-001
      -4.5211492003941929e-002 -1.8935756860925060e-001
      4.1541408248745243e-001 7.4180411197732624e-002
      -4.1477078590576660e-001 -1.0137000789423523e-001
      4.6594329690872943e-001 1.7427508368233607e-001
      3.5303449434518498e-002 4.9707896356868835e-002
      9.2084958407824252e-003 -7.3911299291567712e-003
      1.9442515903507414e+000 -2.8935164530150870e-001
      5.0421754874345315e-001 2.9524932192007750e-002
      9.7258341002402049e-002 -4.0466261726428182e-001
      4.5368171611886449e-001 4.7733593057088081e-001
      3.6615800154378592e-001 4.3601514677859904e-001
      6.3601161244195714e-001 3.2126418884711327e-001
      3.9931005563813238e-001 -3.9479273302513890e-001
      -4.1515243919787909e-001 2.8376424942688722e-001
      1.7000221113022460e+000 -4.5845889687246372e-002
      1.1232545411838221e-001 -1.7338978976279856e-001
      4.6987652372842015e-001 -1.0392867061189183e-001
      5.8699471678809656e-001 3.7820693339958766e-001
      2.6142723452606781e-001 4.1878552315939516e-001
      5.0119999510577395e-001 4.7560144833123469e-001
      5.3569098078364286e-001 -5.1115246817961335e-001
      -2.0071192267261934e-001 1.6080277960225989e-001
      4.1874528965072916e-001 -3.7419281711870943e-002
      -6.7452942388264617e-002 5.0698872623336881e-002
      4.1016275705656402e-001 3.8997872818975188e-001
      2.6750439160783934e-001 5.2841040876073453e-001
      -2.3055784811589861e-001 1.5055800166369487e-001
      8.2104099665680563e-001 5.4179933257197932e-001
      5.1766627889577521e-001 -3.5357086558873807e-001
      -2.6906163747546741e-001 -2.3993600770099102e-001
      -1.2498073322209946e-001 4.1867685605861162e-002
      1.8450829187551188e-001 2.3793598627442101e-002
      4.8583951894272165e-001 8.3988947257713567e-002
      -5.1570171548247709e-002 3.5147750654157950e-001
      -5.7257791042214312e-001 1.3720541061120853e-001
      2.4943164906524556e-001 1.5897096195684232e-001
      1.3289579370524529e-001 1.5148124551118741e-001
      -2.8509062980722771e-001 1.4237412703801314e-001
      -2.2341606835792310e-001 -1.7224585584844737e-001
      3.9867500748057033e-001 -3.0680194723188570e-001
      4.6370718260516336e-001 3.6085626223606893e-001
      -1.5298440559283558e-001 2.2694768497397660e-001
      -1.7482361874683702e-001 1.9034676695135905e-001
      1.6247202859681339e-001 -2.4405932130009270e-001
      1.7302672978788983e-001 1.3185493376543136e-001
      -2.1975963015538483e-001 2.8651863471100303e-001
      3.3379845684750764e-001 -1.7772082074398603e-002
      2.7382383648911246e-001 -1.1974173815053786e-001
      5.6153362290872123e-002 4.3999388187586247e-001
      -2.3440416681187512e-001 1.0082642238445541e-001
      -1.3510653837875638e-002 2.5948065870298420e-001
      -1.8430627895288260e-001 -1.6801078886322129e-001
      1.5670212171247547e-001 3.1433642114648619e-001
      -2.0457889203978286e-001 2.2897508767158009e-001
      9.6054970698252284e-001 8.7067053506734174e-002
      3.0695584959227989e-001 -1.4779620620783024e-001
      -9.7171628223887609e-003 4.1387318911550630e-001
      -1.1544759387206992e-001 -1.8195024820209869e-002
      2.8617860895637125e-002 3.1374148398751044e-002
      -3.0341764985769148e-001 -2.7792878736783566e-001
      -1.2251004544192524e-001 2.3652186666612121e-001
      -6.4130165562460859e-002 1.2314062167046547e-001
      -4.0202847997416413e-001 2.1409741478771810e-001
      -2.2504504218906210e-001 3.4585570680559410e-002
      -4.4244449200938696e-001 2.2494900994154260e-001
      2.6889175532056324e-002 -1.9615184221165083e-001
      -7.5009078139460048e-002 1.5223340406252989e-001
      -5.7551556151482364e-001 -1.4471585478731452e-001
      -5.3477876604302499e-001 2.3401183234484249e-001
      -7.9274507464304478e-002 -2.8056817897625021e-002
      -4.1942075726700079e-001 1.6426383888885296e-001
      -1.6413362943238496e-001 -1.3512293151134380e-001
      -4.7292335759473109e-001 3.7739766012695181e-001
      2.7502385963816861e-001 -1.1964001262062351e-001
      1.7055653662623738e-001 3.1817322613943183e-001
      -3.6824231790961981e-001 -4.5916693328938517e-002
      -3.6898878178811451e-001 -7.9397880190258202e-002
      -2.5602579088566041e-001 -8.7180339382954518e-003
      -2.2735010074859670e+000 1.5567651165633789e-001
      -1.9653487827879515e-001 -1.3938086938248523e-001
      -3.3567111792292559e-001 4.5400626350121143e-001
      4.3297410693145785e-002 -1.9200420701048753e-002
      5.3419663540614414e-002 2.1811873888627617e-001
      -2.7954251838234029e-001 8.4315540292371247e-002
      -1.0110741611836827e-001 2.7356833689371218e-001
      -1.5373547556033471e-001 -2.2072810513507232e-002
      -3.0044098224421916e+000 1.3467984512469924e-001
      -6.7716375989451155e-002 -4.1146425832159200e-001
      -3.7907433428809478e-001 5.0355269448583639e-001
      1.2151081444050359e-001 3.5428605429318159e-002
      6.0769179430027620e-001 2.8198904617767057e-001
      -2.3203580482669919e-001 1.4365537914366330e-001
      -1.0487604532475815e-001 5.3281471976178996e-001
      7.7347720482079579e-002 2.3552752603539243e-001
      -5.1305547021418363e-001 8.5428405507306571e-002
      1.8458720177843721e-001 -6.3295841581536960e-001
      -2.5736055635278959e-002 5.6405823627104290e-001
      3.6592359462411406e-002 5.7489494619980333e-003
      7.4790422198612516e-001 1.1564324248566912e-001
      -7.2285153928029255e-002 1.1340108220455641e-001
      2.3828627341085692e-001 2.7835672461453947e-001
      2.3088230318976907e-001 -1.2811993899638149e-002
      3.1198631813431632e+000 1.0777282736844651e-001
      6.2431499255608847e-001 -7.7565253692805647e-001
      2.9681038391251680e-001 2.6046964159768388e-001
      8.6940654856577385e-002 -2.1743573932610699e-001
      7.1826919317969806e-001 1.9620040685869259e-002
      2.7151598846940156e-002 -2.3278733429691859e-001
      9.2929522565315503e-002 5.5370070742675651e-002
      1.9028260473411288e-001 -1.0578541016274194e-001
      4.4478930716639500e+000 -2.2880878900450083e-002
      4.3321014023692522e-001 3.0777768393486182e-001
      2.3167113781403928e-001 -3.2002848657677391e-001
      -3.5992879896773450e-001 -6.2925080427548895e-003
      2.9114164600138315e-001 -5.1196304205185628e-001
      4.4472177713850974e-001 2.1823458679421287e-001
      2.3621601177239868e-001 -1.9873518130204190e-001
      -2.0970858458192777e-002 -1.5350544623388521e-001
      3.9836292662801038e+000 -2.1295945220156329e-001
      -4.6001380654324492e-001 6.5322540943675700e-001
      2.3300299629504545e-001 -1.1899067905106768e+000
      -2.4604019395733837e-001 1.0493236531578803e-001
      -8.9528694409051401e-001 -3.6323154991261181e-001
      4.9499482096213054e-001 3.4583469356892460e-001
      1.9085389126040161e-001 -5.0208624620181097e-001
      -2.0447192491819471e-001 -1.5111714460848824e-001
      -3.1129141452456360e-001 -1.5501571839171352e-001
      4.5990534294660795e-001 5.9899937608428455e-001
      -5.1688931718704401e-001 -3.0334644327038013e-001
      7.2480019825365527e-001 4.3600837123508415e-002
      1.2534065144637765e-001 1.7284152914940898e-001
      6.5599318339607005e-001 -2.8091217185167844e-001
      9.8884818718887241e-002 4.4427234531284013e-002
      3.3483493683923653e-003 -2.0393370266994612e-001
      -6.4343459248268065e-002 -1.1921496226426287e-001
      3.8402869740244006e-001 2.5281951480333520e-001
      -2.5430096014957004e-001 -2.9312670721189193e-001
      1.0463466936411590e+000 1.2359199597930931e-001
      3.9858556954049573e-001 5.2339413318901851e-001
      5.0141892227729146e-001 -4.3464646834916293e-001
      3.3650172737882578e-001 -2.7490213813777220e-001
      -8.4641187898334691e-003 -1.2056912345799317e-001
      -8.7737738037325119e-001 -3.5477854389632557e-001
      -4.6053354710066707e-001 -1.7735543873625004e-001
      5.1572719371908394e-003 4.3742850438464337e-001
      2.8478469675958690e-001 2.5068468400129368e-001
      7.9053637225495477e-001 5.3635650535119241e-002
      8.5682231858851321e-001 9.1983670379143841e-003
      3.7552629238399027e-001 -5.5087758584716678e-002
      -1.6849835117312927e-002 1.8990579394102705e-001
      -2.6071443332318451e+000 -3.9463046199964458e-001
      -3.4333745722953413e-001 -1.4780536719536075e-001
      2.3549609347524345e-001 8.7668728612285390e-002
      -3.9344800324509356e-002 3.2862769788501073e-001
      4.5520461154148645e-001 6.7771257555429149e-003
      8.5275862032643868e-001 2.0586565687888433e-001
      2.9778757224470914e-001 9.0894496576865880e-002
      5.0614794919513866e-002 2.8015741054202553e-001
      -1.1956611383465179e+000 -2.8698932888735712e-001
      -2.9393474956030846e-001 -2.2231801160868861e-001
      2.0739756447560048e-001 -2.2524076670395604e-001
      -9.7318214679787449e-002 3.7957728140055208e-001
      -3.7054749998949310e-002 5.8271112094049192e-002
      3.4088944199624310e-001 3.1025155855593328e-001
      8.0038761666834699e-002 7.8124081010955221e-002
      -1.4736756634444392e-001 2.5402441216043248e-001
      1.0831707828949333e+000 -1.6744951126530264e-001
      1.6410497963541373e-001 -1.9206444748389701e-001
      -1.0323149097723942e-001 -3.7006426299986315e-003
      -3.6767958069235895e-001 9.8352485582467730e-002
      9.3968876069620441e-002 -2.8920462425060889e-001
      1.8197649635687846e-001 -8.3776649693113173e-002
      -1.3086149029794206e-001 -2.4146262459224396e-002
      -1.6035464663400825e-001 1.2005216168688365e-001
      1.6111231679575577e+000 -1.7623271659340448e-001
      -2.5388886766372715e-001 -2.4658708898260090e-001
      -3.0606127326982246e-001 6.7592228071282734e-002
      -3.2579908053421880e-001 -6.9660224946526449e-003
      1.4026316733872599e-001 -2.0494427596868309e-001
      -2.1430821166458700e-001 -5.0603487526222894e-002
      -3.4683302476722694e-001 -1.0468497988823783e-002
      -2.2399629427988285e-001 1.6586876418846924e-001
      4.2638782522533203e-001 6.1146551761938568e-002
      -7.2543895209714701e-002 -2.6467155146495580e-001
      -2.7517568204658244e-001 1.3448583153277435e-001
      5.3442151494331173e-002 -1.2568128227999609e-001
      1.9678887622768626e-001 2.1793096567892944e-001
      -2.1963777193205403e-001 -2.0784827815508028e-002
      -1.7970538561657695e-001 1.2405787858043031e-001
      -8.0734713907837583e-002 2.5215388544805050e-002
      1.4338866182940804e-001 9.9356181589215720e-002
      -1.7828893818520508e-001 -4.8583347850611400e-002
      -4.3397160118252237e-001 1.9715229674186599e-001
      1.5334370655037904e-001 -1.1983369136175445e-001
      -3.0565338743184591e-002 2.3133869831599493e-001
      -4.0213042190615683e-001 1.5549622865022347e-001
      -1.3526837364499880e-001 7.8554521651551579e-002
      -2.3739735891901034e-001 -1.0562647473399228e-001
      -1.3822789642939248e-001 -3.5258825591500488e-002
      6.3263502757324938e-002 -1.0234364034847550e-001
      -9.8916334063536906e-002 2.9108260910312034e-001
      4.6836522292084647e-002 -1.6202572849174156e-002
      -2.1862040067658400e-001 1.4632846933243454e-001
      -7.3696432046192292e-002 1.0492967014959634e-001
      -1.9526558931354007e-001 1.9347452283516899e-002
      -2.9284586810989172e-001 4.6018800350422037e-002
      -2.2630651203896623e-001 1.9958121554958005e-001
      3.6878441263373229e-001 -9.2306733210642200e-002
      1.2792689980936825e-001 2.6765824133954513e-001
      -2.7059847677013887e-001 -4.0845993014519980e-002
      -6.6238833309370998e-002 -8.0795735857315462e-002
      -1.9805875639583684e-001 8.7340578393631352e-002
      6.8010205594486992e-002 6.9076455001887818e-002
      -1.7377644318085228e-001 -5.7553980250868837e-002
      2.1696816914830983e-001 1.4087281428345810e-001
      8.2769742018735659e-002 -2.0124241364537851e-001
      -5.3364502229877230e-002 2.9812335300864495e-001
      -2.0231834628838358e-001 -1.3476188822680077e-001
      3.5271534801964605e-001 -6.9785986406484007e-002
      7.9640526409102588e-002 4.4817564949479652e-002
      9.7268492522131503e-002 2.6272613399859451e-001
      3.6056267697312752e-002 -1.1968212993181623e-001
      1.5354496887480407e+000 1.1400026316454960e-001
      1.7551070560325494e-001 -1.8337777670346985e-003
      8.7819347932746719e-002 2.4769861558231324e-001
      -1.0221711090968431e-001 -6.7090656964606629e-002
      4.6197670241010591e-001 -1.2444419929166894e-001
      -7.5565934329115611e-003 -1.3627326867175271e-001
      2.1299287409793402e-001 1.9974608131732172e-001
      2.1480435466338663e-001 -1.5564192028570800e-001
      3.0732235020999346e+000 -5.2481206358521902e-002
      -7.9860333539483450e-002 -3.8483495728320177e-001
      9.2170435706427384e-002 1.9789323393238209e-001
      -2.2560799735603770e-001 9.8297814564947891e-003
      7.0807107890747989e-001 -7.1489582157146750e-002
      2.8874932390657770e-001 3.5563148827165852e-001
      4.8511924713528380e-002 8.6418255480970804e-002
      -6.3647480281294910e-002 4.2192854761959851e-002
      2.8550818677534817e+000 -1.6155561281541397e-001
      2.4747115692344818e-001 -5.2673761329538771e-001
      1.5064924567182580e-001 -2.3493289563613320e-002
      -1.0169493239005777e-001 1.4906049407431118e-001
      2.8593267821206780e-001 2.1236162924127927e-001
      3.8541578794675241e-001 3.3748171631207899e-002
      5.0268776550209407e-002 -2.9888339321611374e-001
      -4.4336291814383272e-001 2.4937484982422428e-001
      2.0049235477757570e+000 1.1535517729476275e-002
      7.0443316986246160e-002 1.8525018170987934e-001
      2.3429957287932252e-001 -7.7745398895856810e-001
      2.6750093637166189e-001 -2.2663527882114164e-003
      -3.7897497906967004e-001 2.3162522403014160e-001
      4.7142385453909291e-001 1.2339439150463634e-001
      1.6135637485465948e-001 -1.9459057862339882e-001
      -1.1377752450265245e-001 -3.5529343955303883e-002
      -8.7082953357535486e-001 -2.3618295948831766e-001
      2.4225604506322299e-001 2.8874256526096176e-001
      -3.8578828823643846e-001 -2.7473728936464187e-001
      5.5107620813868530e-001 -1.0864146913573423e-001
      5.4611823020758721e-001 1.4752795541814590e-001
      6.4260462116474781e-001 -3.4990109304982975e-001
      1.3063367817726682e-001 6.4233135572248551e-002
      5.4609862662207610e-002 -8.8117496696226483e-002
      -2.7039783539676625e+000 -4.8278917047269199e-001
      1.8029109575567728e-001 5.7853017029502363e-001
      -7.3454392061406648e-001 3.1727457679244636e-001
      1.8405317651047554e-001 1.5393818209192370e-001
      4.1686191338270645e-001 -3.9354473097664200e-001
      7.1061259811403632e-001 -7.6199407693035104e-001
      2.0212239118113312e-001 3.0676461020416163e-001
      3.8293887611751003e-002 -2.2949421676940640e-001
      -4.4953992813579191e+000 -6.3170492573460901e-001
      -5.3405064411886421e-003 2.2404738002268193e-002
      -3.7844326434225645e-001 6.9846581914486927e-001
      -5.2039940831370160e-002 3.3184845722915773e-001
      2.3489402986531357e-001 -4.6637869959968192e-001
      7.3938597114565097e-001 -5.2591327833518331e-001
      -3.5100823057635164e-002 4.9396464600880424e-001
      -5.2424217908955510e-002 9.3317025298489242e-003
      -3.8891305932513980e+000 -6.1688110944616137e-001
      -7.6103467614451123e-002 -1.7428437617497883e-001
      -1.5707854652176417e-001 1.8839377604285223e-001
      -8.5529303517444655e-001 1.4958576745150329e-001
      -3.1129405969570678e-001 -1.8061699883432811e-001
      3.3640836746530334e-001 -5.3702831376444338e-001
      -3.1280151254444993e-001 9.2024232927654703e-001
      -6.2374454008949788e-002 3.4908715937408930e-001
      -6.8423560564655517e-001 -4.7180179609361850e-001
      -1.6977869647809468e-001 -3.8772846713203546e-001
      -1.3615209355902180e-001 -8.2536189450165665e-002
      -5.7225404136370406e-001 2.8054390435958992e-001
      -3.2840161060272755e-001 -3.5900447837867977e-001
      1.7620510585154969e-001 -4.0920261289924575e-001
      -1.4936262683017132e-001 3.2062440603595377e-001
      -2.9994306567336931e-001 3.3229166230395535e-001
      -5.7719001372799972e-001 -3.5741942600311344e-001
      -5.9264578247265920e-001 -5.2403386827682708e-001
      6.3781768548241163e-002 -1.9576569573070277e-001
      -7.4846333393831244e-001 2.7797116278019535e-001
      -4.9394576433390464e-001 -1.0799707039343537e-001
      1.6285948732475033e-001 -2.3506420201834119e-002
      4.9972703977142407e-003 2.7903972830896517e-001
      -2.3871868792840445e-001 6.3004611209960681e-001
      1.0301374091694353e+000 -6.5901299737296984e-002
      -9.1089942526837120e-001 1.7411872539355222e-001
      -8.1062847379830702e-002 -1.9774350668531529e-001
      -2.0275387655632177e-001 1.5842808279751155e-001
      -2.4753402513685924e-001 -6.2146369946188773e-002
      8.0849421119171525e-002 4.5690944829044233e-001
      -5.4043262693181287e-003 1.2999926696820779e-001
      -2.8482343094489885e-002 2.6667388239371714e-001
      9.1010746503694406e-001 4.9880345814819836e-002
      -6.0610735393120785e-001 1.2611204313165505e-001
      1.9947722598591913e-001 -1.6846183684995833e-001
      -4.1185624729353437e-001 -3.3320043010886279e-002
      -5.5288093464803324e-002 -7.6064183393861992e-002
      3.2153222807597087e-001 3.5075664521560523e-001
      5.8174146549670250e-002 -2.6950205026623208e-003
      1.1247060486989922e-001 1.0975129200551537e-002
      1.5126654970128178e-001 2.9455976532157518e-002
      -2.1872288473249674e-001 1.7643576737606634e-001
      6.5515451690543791e-002 3.7316375898048620e-002
      -4.1832155529861648e-001 -1.4028687087519714e-001
      3.7433643575403207e-002 -7.7338260080975371e-002
      2.0643805304973881e-001 6.7235101213630214e-003
      1.0562202865311993e-001 2.3925915623946922e-001
      1.3956566989287103e-001 -3.1515554413223450e-002
      9.0810790482981174e-001 7.9745304178318599e-003
      3.3327918126036737e-001 -1.4543920125013893e-001
      1.8512009540791094e-001 1.0709612797563969e-001
      -3.9174462953929967e-001 -5.2608315979924214e-002
      4.2063197808116726e-001 1.5791744910559728e-002
      1.4760739074671994e-001 -2.3764267738745107e-001
      1.4532352710659630e-001 -6.3532696385362755e-002
      9.5698551258978637e-002 1.3609317045756200e-002
      1.9339133893933844e+000 1.0800693360453512e-001
      -1.0844391958747410e-001 -2.2239378218837094e-001
      3.2839391457016237e-001 1.5832415022557070e-001
      -7.2330309900472289e-002 -6.6433272416859396e-002
      3.6027915266207267e-001 -4.4496150246232401e-002
      9.5902388315543874e-002 -1.7037884053845478e-001
      2.3005105808991486e-002 -3.5118148236724031e-002
      1.1448123723260858e-001 2.4397820898901373e-001
      1.9145629196516205e+000 1.6768053775898369e-004
      2.8308707604307326e-001 -3.2957400840510503e-001
      2.3430359769736253e-001 2.4875293720432318e-001
      -2.6228482762545174e-001 5.0479046418013637e-002
      2.4151304565212900e-001 -1.7290790766329636e-001
      -4.1105783898631114e-002 -1.1268302980220586e-001
      -7.9277829252420717e-004 2.7713504212480783e-002
      -8.1747150817467681e-003 -3.1574252280150532e-002
      9.7754665571765198e-001 8.2623443203458533e-002
      1.8062832643987788e-002 -2.9315649228158808e-001
      -1.2728274469287898e-001 3.0803541947161317e-001
      -1.5086823936017754e-001 2.3867826327740496e-004
      7.0807417340966716e-001 1.1402452126441275e-001
      -2.8561328664209681e-002 2.1615780583201238e-001
      -1.2172753519914704e-001 5.1695027645091554e-002
      -1.0861390068634355e-002 7.0697828646826846e-002
      1.5736638378015106e+000 -1.0139572021839617e-001
      -2.2363498425178269e-001 -3.4705363092454317e-001
      -2.0921564542533674e-001 3.1253191257067098e-001
      1.2937661319175425e-001 1.6987392086900849e-001
      1.7364307368706236e-001 -2.9216086846771744e-001
      7.9840935167478977e-002 5.1813264020527150e-001
      -4.0001626398428786e-001 9.8743684213831048e-002
      -4.1267214479486686e-001 1.8937230417340625e-001
      1.7105503411544831e+000 6.6745909993947722e-002
      -5.9357080665481021e-001 -2.6854350982200659e-001
      -1.9969867128154761e-001 2.8852309676720517e-001
      4.9815019344825062e-001 3.7263890388612740e-002
      2.0077484735204304e-001 3.2108740739236968e-001
      -5.5249408901059897e-003 3.7499156642512699e-001
      -4.0354248569748391e-001 -1.1379006033582850e-001
      -5.1924268502021620e-001 1.9545834304389514e-001
      1.4923998034061241e+000 4.8511612136212974e-002
      1.0122117718330312e-001 1.4861831415395171e-001
      -7.1381836735471507e-002 1.5810195386931339e-001
      3.6270844461808442e-002 1.3005982828892088e-001
      -3.3239398969676548e-001 3.0716875235519009e-001
      -1.1501099159501060e-001 3.2742252881929401e-001
      1.5174875181809627e-001 7.6672916287158874e-002
      -3.1884649748107791e-001 -1.4456901321976676e-001
      -1.7356958230812904e+000 -2.6617383005496048e-001
      7.7222325698315303e-002 2.2804817347270436e-002
      -3.6570018851632907e-001 -1.1322280960629066e-002
      5.1699896446303162e-001 -5.4065145128744059e-002
      8.0860398434487868e-001 -1.1479520509594796e-001
      5.6965785538012625e-001 -2.7195641573450902e-001
      7.5920337956136438e-002 6.0977438844405298e-002
      2.4586233299432120e-001 -6.2629777301500447e-002
      -4.6148112793162497e+000 -5.9224027023218329e-001
      4.1174891989242085e-001 6.6624222671321687e-001
      -5.9163379799432547e-001 3.4308670936574664e-001
      -2.0554717750301027e-001 1.9694296951461571e-001
      -3.3070758909705489e-001 -1.9009045197792554e-001
      6.3371829831012816e-001 -8.4011380499789534e-001
      -5.5133910879607152e-002 7.4844893871475937e-001
      5.9218590677194684e-002 1.8730114901695227e-001
      -4.8622017107002442e+000 -6.4835991980425622e-001
      8.4955068687943203e-001 4.0487453430043807e-001
      -7.7285127472653070e-001 4.0200565791584097e-001
      -3.6897320280172879e-001 1.5601831235014776e-001
      -2.2432428754806563e-001 5.2446590845191508e-002
      2.1891626654964372e-001 -1.2147596676591226e+000
      -8.1276171951644563e-002 1.2021516190149442e+000
      1.6335757558661754e-003 1.0426872471234884e-001
      -3.2647951988109658e+000 -4.0628684556017364e-001
      4.4065390442198044e-001 -5.0996398463369390e-002
      -6.7054551000778440e-001 3.1992818660124367e-001
      -7.9153346700694321e-002 2.4894875588705695e-001
      1.9755456767069171e-001 -6.8302201637924553e-002
      6.2374206236481301e-002 -6.6922281193881483e-001
      -9.6666786262729579e-002 5.8390954657508487e-001
      -3.6647570807443137e-002 5.3135112570027634e-002
      -9.7378027870435913e-001 -1.0674542991464406e-002
      1.6458804927071649e-001 6.2678492131731364e-002
      -5.2276803945205863e-001 2.4594956045718253e-002
      1.4590021984762946e-001 -2.1680336197614215e-002
      -1.9387195039933613e-001 -6.0355238620918572e-002
      -4.2370736705399420e-001 -2.3194269385239710e-001
      -1.6511333326407424e-001 1.4880510372936578e-001
      -4.3461987893134938e-003 -1.7111043953325700e-001
      3.6269954483776179e-001 -2.0770509544331059e-002
      -2.9968565048605823e-002 -2.5978594606995153e-001
      2.6668297773701310e-001 -1.1985736164254179e-001
      -1.7306133053468867e-001 8.1904725559942618e-003
      -1.4990562057579204e-001 -2.0344427262352677e-001
      1.5463226460755711e-002 -7.2262707305235296e-003
      7.0625297932059294e-002 -2.6670615517968366e-001
      1.1656423857590847e-001 -1.2681014772581047e-002
      -5.8993363253545350e-001 1.0363414228351604e-001
      -5.1452790895615075e-001 3.2277868455945131e-003
      3.9510608178165163e-001 -3.0706975160648520e-001
      -4.9964145696775342e-001 -2.7545216505141492e-002
      -1.8797945802374835e-001 1.0339768431789631e-002
      1.5959497802755521e-001 3.5264990110279254e-001
      1.5967936834868487e-001 -1.1788188839701319e-001
      1.7690436902738493e-001 2.5569597880595674e-001
      -2.0749181515255508e-001 5.8373878531742245e-002
      -5.4290018042218557e-001 -1.3460946578883862e-002
      5.6186575261864480e-001 -3.9953236534636127e-001
      -6.1616547816345713e-001 -1.2021852127899933e-001
      2.1389103026988113e-001 1.0375245299008049e-002
      2.7142629052993594e-001 2.0164887691566394e-001
      1.9063882954488545e-001 -1.2269318949484727e-001
      2.2290427189633785e-001 2.4686406714286138e-001
      -6.5922239418278827e-001 1.8351965249097568e-001
      -1.7881920076583047e-001 5.5417134001184171e-002
      4.8595357990466409e-001 -5.0458570499266997e-001
      -7.5598772986324869e-001 -2.4521616638751739e-001
      3.0006241187953020e-001 7.0238758700683301e-002
      4.1247723545443607e-002 -1.4915432732807011e-002
      2.1574665594454631e-001 2.0258825728251599e-002
      2.9779064171487352e-001 1.8212396105268233e-001
      -2.5292199205521027e-001 1.5745330314330169e-001
      -1.1650370320401704e-001 9.6042741412020780e-002
      3.5608269323017283e-001 -2.3465726945465548e-001
      -3.7234528144143247e-001 -1.1831592820846611e-002
      2.5904922497290955e-001 1.1722060850645323e-001
      -6.6605772504688909e-002 -1.5406173241037910e-001
      9.8828207695088141e-002 1.0243627655020139e-001
      2.3759464083695264e-001 -7.2235196271256297e-002
      5.4714785633993748e-002 6.8723411081033303e-002
      3.2575659794661649e-001 1.2653704558916815e-001
      -6.7328007381355512e-002 -1.7364378014006265e-001
      -5.2870173653110630e-001 4.1801033489783965e-002
      1.1110898810140633e-002 5.9010852399776569e-002
      -6.0437795968926719e-002 -6.3433791246152477e-002
      -3.1818266255305129e-002 4.5584713365737112e-001
      1.4352813805401343e-001 5.1559846592137588e-002
      3.6100742771314176e-001 -7.9949557153795148e-002
      3.4003384993906444e-001 -2.6940520537194612e-001
      1.2395173024864825e-001 3.6062245755310068e-001
      -6.5033619756243291e-002 2.6249204984556257e-001
      1.3195085069489565e-001 -3.9443054817104528e-001
      4.5563804170202449e-002 -1.5894921138362350e-001
      -8.1453096003373526e-002 1.2820955039667051e-001
      1.2939045688933800e-002 9.6367917748517121e-002
      1.0520768611614746e+000 -1.7814975334827038e-002
      -5.1456746521418094e-002 -1.3208859089343955e-001
      -5.7830076823771566e-002 2.5362021057330530e-001
      -5.0786261169442022e-002 3.2791333070032247e-001
      1.6801752944387877e-001 -3.9636058342962084e-002
      1.9141261598193365e-001 6.3873835017275826e-001
      -1.2578460843441035e-002 -8.1437119415305501e-002
      -2.1709189894151409e-001 1.1469864025046957e-002
      4.9309182926682538e-001 1.6462167148947313e-003
      -2.7959978055681661e-001 -1.7101076970883283e-001
      -2.2056675534797507e-001 2.7337394145646615e-001
      2.3869850868842352e-001 1.0011056311150031e-001
      2.7543692510772235e-002 5.7021252198664774e-002
      1.0767924316640221e-001 4.7327736124925096e-001
      -1.9820294374490335e-001 -1.2848093885795412e-002
      -3.0050059450362754e-001 -8.6378999746742721e-002
      1.0298287095957090e+000 1.1719017443876925e-001
      -5.0884152842062447e-001 -3.5337379636146932e-001
      -4.9027287376610473e-001 3.4076205937509119e-001
      3.6438422226367162e-001 -2.7824467077598582e-002
      9.3584094486230798e-002 -5.2028747214779250e-002
      -1.5752760080924225e-001 2.8973473197138272e-001
      -3.7788696558439577e-001 -2.2243861842582882e-002
      -3.2984921659595051e-001 -7.4341931824483815e-002
      1.3691755441525619e+000 2.2957233930923490e-001
      -4.1998897537133595e-001 1.5143752702488855e-001
      -4.3241764453080034e-001 2.7889484147117843e-001
      4.6039530552502311e-001 5.3937767270251555e-002
      -2.4188648848475952e-001 1.2006430302576110e-001
      -2.2145064349233037e-001 5.9150875423673743e-001
      -3.7562830629206467e-001 -3.3247354961001674e-002
      -4.8158177638007976e-001 -2.7499472074100612e-001
      -2.8387116825963918e+000 -2.0640842843952351e-001
      -1.5127336644031220e-001 6.5223115571789572e-002
      -9.2816401236208948e-002 -6.3698329955073907e-002
      -4.1029504666235656e-001 1.8240127113142038e-001
      -1.9849130795667130e-001 -2.0330585264932199e-002
      -1.9456303311727505e-001 2.2032304645225631e-001
      -1.1140744410009606e-001 1.8725488938709745e-001
      -1.8851279350330867e-002 3.4275273134482427e-002
      -3.7130871713703484e+000 -5.7332808417952918e-001
      6.8097036888334739e-001 3.7610004809674324e-001
      -7.0485802726113456e-001 2.1234284381317947e-001
      -2.5273687303727788e-001 4.0574672756611713e-001
      -2.8192281573285022e-001 -2.7096793644160311e-001
      4.2285297534415223e-001 -8.4369088569274153e-001
      -2.0158224195966154e-001 7.9314287309685871e-001
      -1.8435572629993680e-001 2.2594679340077872e-001
      -3.4178004073089947e+000 -4.1994466765097116e-001
      3.4989571817281173e-001 9.6022928910933170e-002
      -5.5141993395071409e-001 1.8786251883520139e-001
      -5.7231176518419316e-002 3.3465480252874946e-001
      1.6175717822869168e-001 -1.3067132949448095e-002
      2.9398194679023554e-001 -5.2927153598764798e-001
      4.9539057696962471e-002 5.4121804449277422e-001
      -5.3088216383051293e-002 2.1327021903312535e-001
      -2.5940223531545019e+000 -2.5794058371869355e-001
      1.5598754457557434e-001 2.8770687920009147e-001
      -3.1917059225920752e-001 1.4001455334340307e-001
      -6.8049339941349098e-003 1.2454263264789829e-001
      1.4632723455937363e-001 -6.4983126292510685e-002
      2.5843849590557466e-001 -2.8343880356621814e-001
      -3.2935127296170270e-002 1.9138462961449679e-001
      2.0689464852435877e-001 -4.1842556776792848e-002
      -1.3857916353366864e+000 2.5491350004685435e-002
      2.5621117643510022e-001 1.6493029374055784e-001
      -2.5887909341249010e-001 -1.6719003237847532e-003
      1.8507849711932511e-001 -1.9488352989562080e-001
      5.9763921009793541e-001 1.7210119370339635e-001
      -4.1085358104176954e-002 -2.3812156730095527e-001
      1.1789299992115340e-001 3.1762754716485706e-003
      3.8095272638273309e-001 -1.0797255751883583e-001
      -2.3252617768961903e+000 1.6566366350358161e-001
      3.5465524485079995e-003 4.8438350742349923e-001
      7.8229818456433522e-002 -1.6742445774811004e-001
      -8.5249098944996160e-002 -1.6843772178270666e-001
      6.9687428973140508e-001 -9.6219040694782501e-002
      -6.6066815728966194e-002 -4.3755450639714880e-002
      1.9093328576457569e-001 -5.7520681508173167e-002
      4.8864950294088083e-001 -3.1537315480459854e-001
      -2.4224777904537591e+000 1.2667685992442737e-001
      -8.6117843470073258e-002 1.3801068443722861e-001
      2.5946633963297772e-001 -1.5993906038481712e-001
      -2.8695243592034064e-001 -1.9455255433538324e-001
      1.8900663286997471e-001 -1.4132072060860607e-001
      3.5393869865328768e-002 1.1733874860048218e-001
      1.1642967337703135e-001 -6.5756531085251632e-002
      3.1528758796476369e-001 -1.8205710162246558e-001
      -3.0338073810044799e+000 9.6043198388042358e-002
      -1.5433912319254967e-001 8.7152469215040412e-002
      3.6444326880209510e-001 -3.0152111100033951e-001
      -3.6953680022561530e-001 -2.0322039789924098e-001
      8.1834174714023794e-002 -6.3594286100568512e-002
      1.2416449487308996e-001 -4.3932932069381758e-002
      5.4075321443314790e-002 8.9966066654200719e-002
      3.8741994204480457e-001 -2.4427622216033527e-002
      -2.0277754237629519e+000 2.1778430915675226e-001
      -1.8962298380531223e-001 3.2001224910863307e-001
      6.5758870141670631e-002 -3.1251905282326803e-001
      -3.1316285219086049e-001 -1.5000274779920841e-001
      2.3028017385412122e-001 1.6009800360096138e-001
      -2.3599528007856305e-001 1.3121702719167980e-001
      1.0854271500379699e-001 1.3316947030413051e-001
      3.6135508743881734e-001 -7.6291761149269888e-002
      -1.2942142762377344e+000 2.7146512766989050e-002
      -5.6888057569759198e-001 3.5182862844030727e-001
      -4.0995823196196657e-001 -2.0672278573915728e-001
      -9.6686335992037978e-002 6.3851009311632692e-002
      3.4542883595717278e-001 3.5280439343511444e-001
      -7.4427338864427720e-002 2.2155776003530497e-001
      1.7885531722739781e-002 3.9456822249221846e-001
      2.7890572541046998e-001 -9.9803430894253600e-002
      -3.5808478404022748e-001 -1.0040275823144607e-001
      -4.4093584668634744e-001 2.6905403810619916e-001
      -1.0214840027453204e-001 -3.7265048404356738e-001
      -6.7696614970098323e-002 1.6147472746853164e-001
      -1.2256305519149973e-003 2.4310831110956273e-002
      4.4173266941341194e-001 2.8819752551885214e-001
      1.2211259518696593e-001 2.4892461373896235e-001
      7.0316831171801347e-002 4.5652884461722604e-003
      9.3051555726466462e-001 -2.1003890226472297e-001
      -3.5038052727931157e-001 2.0550663961209395e-001
      -6.6063598631765322e-002 -7.0636077663170760e-002
      1.2147061817731380e-002 4.7744213620085324e-001
      -8.2448338774970750e-002 -1.9761513163289151e-002
      3.0716267693598864e-001 5.7740334729414944e-001
      1.1417777861477388e-001 -3.8709371961056969e-002
      -1.8131226224471861e-001 -3.4008122182833465e-002
      -2.5159626944666336e-001 2.7464329472343001e-002
      -5.5785445446964987e-001 6.2938612035711294e-001
      -2.1562418704112610e-001 6.0087305301819112e-002
      7.8294043759493601e-002 1.8633487809861837e-001
      7.8570508200561343e-002 1.4385008547906009e-001
      3.3560850719620561e-001 7.5299764283371784e-001
      -1.2129322881618980e-001 6.9613706892725238e-002
      1.3820639021259065e-002 -2.9002197219256450e-002
      -1.0879425551464650e-001 1.1248546897032729e-002
      -8.5625091193113567e-002 9.9284269951177645e-002
      -4.4991349325990491e-002 2.6306900186773535e-001
      2.6928243596399326e-001 1.1535659552898359e-001
      -1.0641678505384887e-001 -3.5007969775975929e-002
      2.0364898974887272e-001 1.7597163536206181e-001
      2.8121319329425645e-002 2.7588030411291858e-002
      -2.5602246259630923e-002 -4.4925072496603873e-002
      -5.9659381658873989e-001 -1.9829938186741669e-002
      -8.2951386983909692e-001 1.5896634558217679e-001
      -3.9298895512192944e-001 5.3149462872517472e-001
      3.2900838247648140e-001 7.9867974422483556e-002
      1.0839610604532066e-001 -3.8352193083562236e-001
      2.0977028301158024e-001 4.7476083932400370e-001
      -3.0087333007054268e-001 -2.4091294412670834e-002
      -6.7506905558421842e-002 6.6532057304088274e-002
      -2.5821601210695915e-002 1.1340215519786154e-001
      -6.2200316601768835e-001 1.0825670313355779e-001
      -3.2273265464292666e-001 3.4682060292302319e-001
      1.4967363877087897e-001 1.2506763976295021e-001
      -1.9434344677552817e-001 2.2246794614527302e-001
      -1.3826185538339786e-001 4.8812144775137906e-001
      -3.7829402610178647e-001 1.5603192608564753e-001
      -4.0373899888113440e-001 3.1650714761862159e-001
